{"learner":{"attributes":{"best_iteration":"262","best_score":"24.258190365993837"},"feature_names":["GridPosition","AirTemp_C","TrackTemp_C","Humidity_%","Pressure_hPa","WindSpeed_mps","WindDirection_deg","SOFT","MEDIUM","HARD","INTERMEDIATE","WET","races_prior_this_season"],"feature_types":["float","float","float","float","float","float","float","float","float","float","float","float","float"],"gradient_booster":{"model":{"gbtree_model_param":{"num_parallel_tree":"1","num_trees":"313"},"iteration_indptr":[0,1,2,3,4,5,6,7,8,9,10,11,12,13,14,15,16,17,18,19,20,21,22,23,24,25,26,27,28,29,30,31,32,33,34,35,36,37,38,39,40,41,42,43,44,45,46,47,48,49,50,51,52,53,54,55,56,57,58,59,60,61,62,63,64,65,66,67,68,69,70,71,72,73,74,75,76,77,78,79,80,81,82,83,84,85,86,87,88,89,90,91,92,93,94,95,96,97,98,99,100,101,102,103,104,105,106,107,108,109,110,111,112,113,114,115,116,117,118,119,120,121,122,123,124,125,126,127,128,129,130,131,132,133,134,135,136,137,138,139,140,141,142,143,144,145,146,147,148,149,150,151,152,153,154,155,156,157,158,159,160,161,162,163,164,165,166,167,168,169,170,171,172,173,174,175,176,177,178,179,180,181,182,183,184,185,186,187,188,189,190,191,192,193,194,195,196,197,198,199,200,201,202,203,204,205,206,207,208,209,210,211,212,213,214,215,216,217,218,219,220,221,222,223,224,225,226,227,228,229,230,231,232,233,234,235,236,237,238,239,240,241,242,243,244,245,246,247,248,249,250,251,252,253,254,255,256,257,258,259,260,261,262,263,264,265,266,267,268,269,270,271,272,273,274,275,276,277,278,279,280,281,282,283,284,285,286,287,288,289,290,291,292,293,294,295,296,297,298,299,300,301,302,303,304,305,306,307,308,309,310,311,312,313],"tree_info":[0,0,0,0,0,0,0,0,0,0,0,0,0,0,0,0,0,0,0,0,0,0,0,0,0,0,0,0,0,0,0,0,0,0,0,0,0,0,0,0,0,0,0,0,0,0,0,0,0,0,0,0,0,0,0,0,0,0,0,0,0,0,0,0,0,0,0,0,0,0,0,0,0,0,0,0,0,0,0,0,0,0,0,0,0,0,0,0,0,0,0,0,0,0,0,0,0,0,0,0,0,0,0,0,0,0,0,0,0,0,0,0,0,0,0,0,0,0,0,0,0,0,0,0,0,0,0,0,0,0,0,0,0,0,0,0,0,0,0,0,0,0,0,0,0,0,0,0,0,0,0,0,0,0,0,0,0,0,0,0,0,0,0,0,0,0,0,0,0,0,0,0,0,0,0,0,0,0,0,0,0,0,0,0,0,0,0,0,0,0,0,0,0,0,0,0,0,0,0,0,0,0,0,0,0,0,0,0,0,0,0,0,0,0,0,0,0,0,0,0,0,0,0,0,0,0,0,0,0,0,0,0,0,0,0,0,0,0,0,0,0,0,0,0,0,0,0,0,0,0,0,0,0,0,0,0,0,0,0,0,0,0,0,0,0,0,0,0,0,0,0,0,0,0,0,0,0,0,0,0,0,0,0,0,0,0,0,0,0,0,0,0,0,0,0,0,0,0,0,0,0,0,0,0,0,0,0,0,0,0,0,0,0],"trees":[{"base_weights":[7.1737385E-1,-2.6206068E1,5.7430854E0,-1.4084324E-1,-2.8572433E1,7.915661E-2,1.0941474E1,6.250529E-2,-3.3013187E-2,-3.2600346E-1,-2.1556738E-1,-6.802671E-2,6.0353775E-2,1.17467485E-1,-1.2183976E-1],"categories":[],"categories_nodes":[],"categories_segments":[],"categories_sizes":[],"default_left":[0,0,0,0,0,0,0,0,0,0,0,0,0,0,0],"id":0,"left_children":[1,3,5,7,9,11,13,-1,-1,-1,-1,-1,-1,-1,-1],"loss_changes":[4.1284574E4,2.9566055E3,7.5660635E3,1.21633865E2,5.406211E2,5.123778E3,2.6385156E3,0E0,0E0,0E0,0E0,0E0,0E0,0E0,0E0],"parents":[2147483647,0,0,1,1,2,2,3,3,4,4,5,5,6,6],"right_children":[2,4,6,8,10,12,14,-1,-1,-1,-1,-1,-1,-1,-1],"split_conditions":[4E0,1.7873333E1,1.2E1,1E0,3.943662E-1,4.6E-1,7.5714284E-1,6.250529E-2,-3.3013187E-2,-3.2600346E-1,-2.1556738E-1,-6.802671E-2,6.0353775E-2,1.17467485E-1,-1.2183976E-1],"split_indices":[0,1,0,0,8,9,7,0,0,0,0,0,0,0,0],"split_type":[0,0,0,0,0,0,0,0,0,0,0,0,0,0,0],"sum_hessian":[3.03E2,4.7E1,2.56E2,4E0,4.3E1,1.23E2,1.33E2,1E0,3E0,2.5E1,1.8E1,5.7E1,6.6E1,1.29E2,4E0],"tree_param":{"num_deleted":"0","num_feature":"13","num_nodes":"15","size_leaf_vector":"1"}},{"base_weights":[3.7147388E-1,3.163267E-2,2.5171974E-1,1.0942553E0,-5.282126E0,3.7869725E-3,1.6281697E-1,-2.4615213E-2,-1.603633E-1],"categories":[],"categories_nodes":[],"categories_segments":[],"categories_sizes":[],"default_left":[0,0,0,0,0,0,0,0,0],"id":1,"left_children":[1,3,-1,5,7,-1,-1,-1,-1],"loss_changes":[2.4939602E3,1.6602103E3,0E0,2.656371E3,1.4468611E3,0E0,0E0,0E0,0E0],"parents":[2147483647,0,0,1,1,3,3,4,4],"right_children":[2,4,-1,6,8,-1,-1,-1,-1],"split_conditions":[9.8039216E-1,4.8214287E-1,2.5171974E-1,3.75E-1,2.4860624E1,3.7869725E-3,1.6281697E-1,-2.4615213E-2,-1.603633E-1],"split_indices":[9,7,0,7,1,0,0,0,0],"split_type":[0,0,0,0,0,0,0,0,0],"sum_hessian":[2.95E2,2.92E2,3E0,2.44E2,4.8E1,2.34E2,1E1,3.9E1,9E0],"tree_param":{"num_deleted":"0","num_feature":"13","num_nodes":"9","size_leaf_vector":"1"}},{"base_weights":[-8.009713E-1,4.5716524E0,-2.6627574E0,1.7962946E1,9.244466E-1,5.273801E-1,-7.13481E0,2.4887058E-1,5.5052236E-2,-6.941687E-2,4.1957483E-2,-2.1459684E-2,9.635453E-2,-4.347209E-2,-1.6674052E-1],"categories":[],"categories_nodes":[],"categories_segments":[],"categories_sizes":[],"default_left":[0,0,0,0,0,0,0,0,0,0,0,0,0,0,0],"id":2,"left_children":[1,3,5,7,9,11,13,-1,-1,-1,-1,-1,-1,-1,-1],"loss_changes":[2.9129495E3,3.6464546E3,3.0853184E3,1.2431294E3,1.5730753E3,3.113007E3,2.3207588E3,0E0,0E0,0E0,0E0,0E0,0E0,0E0,0E0],"parents":[2147483647,0,0,1,1,2,2,3,3,4,4,5,5,6,6],"right_children":[2,4,6,8,10,12,14,-1,-1,-1,-1,-1,-1,-1,-1],"split_conditions":[1.6363636E-1,1.3554193E2,5.535714E-1,8.695652E-1,5.192308E-1,2.9330128E1,2.9330128E1,2.4887058E-1,5.5052236E-2,-6.941687E-2,4.1957483E-2,-2.1459684E-2,9.635453E-2,-4.347209E-2,-1.6674052E-1],"split_indices":[8,6,9,9,9,1,1,0,0,0,0,0,0,0,0],"split_type":[0,0,0,0,0,0,0,0,0,0,0,0,0,0,0],"sum_hessian":[2.89E2,7.4E1,2.15E2,1.5E1,5.9E1,1.26E2,8.9E1,9E0,6E0,1.7E1,4.2E1,9.8E1,2.8E1,7E1,1.9E1],"tree_param":{"num_deleted":"0","num_feature":"13","num_nodes":"15","size_leaf_vector":"1"}},{"base_weights":[1.1215191E0,-4.5443363E0,3.1294699E0,-6.5367146E0,1.4453204E1,7.961425E-1,1.0633225E1,-4.0071588E-2,-1.8097922E-1,1.7572723E-1,-3.691717E-2,4.5690496E-2,-1.2926419E-1,1.278215E-1,-8.688537E-2],"categories":[],"categories_nodes":[],"categories_segments":[],"categories_sizes":[],"default_left":[0,0,0,0,0,0,0,0,0,0,0,0,0,0,0],"id":3,"left_children":[1,3,5,7,9,11,13,-1,-1,-1,-1,-1,-1,-1,-1],"loss_changes":[3.518263E3,3.160349E3,3.9835225E3,2.091588E3,5.1770105E2,9.119503E3,2.3531938E3,0E0,0E0,0E0,0E0,0E0,0E0,0E0,0E0],"parents":[2147483647,0,0,1,1,2,2,3,3,4,4,5,5,6,6],"right_children":[2,4,6,8,10,12,14,-1,-1,-1,-1,-1,-1,-1,-1],"split_conditions":[3.1578946E-1,8.450704E-1,4.5070422E-1,6.9736844E-1,8.873239E-1,3.409091E-1,3.1412964E2,-4.0071588E-2,-1.8097922E-1,1.7572723E-1,-3.691717E-2,4.5690496E-2,-1.2926419E-1,1.278215E-1,-8.688537E-2],"split_indices":[9,8,8,8,8,8,6,0,0,0,0,0,0,0,0],"split_type":[0,0,0,0,0,0,0,0,0,0,0,0,0,0,0],"sum_hessian":[3.07E2,8E1,2.27E2,7.3E1,7E0,1.74E2,5.3E1,6.1E1,1.2E1,6E0,1E0,1.37E2,3.7E1,4.8E1,5E0],"tree_param":{"num_deleted":"0","num_feature":"13","num_nodes":"15","size_leaf_vector":"1"}},{"base_weights":[-7.782976E-1,-2.4456434E1,3.9963012E0,3.493361E0,-2.7440649E1,-6.4090686E0,6.5297112E0,-3.1652942E-2,1.8393318E-1,-3.1538334E-1,-1.5236388E-1,2.0053165E-2,-1.6309406E-1,9.3273915E-2,1.6038576E-2],"categories":[],"categories_nodes":[],"categories_segments":[],"categories_sizes":[],"default_left":[0,0,0,0,0,0,0,0,0,0,0,0,0,0,0],"id":4,"left_children":[1,3,5,7,9,11,13,-1,-1,-1,-1,-1,-1,-1,-1],"loss_changes":[3.570962E4,4.516496E3,6.9748096E3,6.535023E2,1.9199141E3,4.364579E3,2.9066045E3,0E0,0E0,0E0,0E0,0E0,0E0,0E0,0E0],"parents":[2147483647,0,0,1,1,2,2,3,3,4,4,5,5,6,6],"right_children":[2,4,6,8,10,12,14,-1,-1,-1,-1,-1,-1,-1,-1],"split_conditions":[4E0,1.7873333E1,7E0,3E0,3E0,1.1E1,5.357143E-2,-3.1652942E-2,1.8393318E-1,-3.1538334E-1,-1.5236388E-1,2.0053165E-2,-1.6309406E-1,9.3273915E-2,1.6038576E-2],"split_indices":[0,1,0,0,0,12,7,0,0,0,0,0,0,0,0],"split_type":[0,0,0,0,0,0,0,0,0,0,0,0,0,0,0],"sum_hessian":[3.14E2,5.2E1,2.62E2,5E0,4.7E1,5.1E1,2.11E2,4E0,1E0,3.4E1,1.3E1,2.8E1,2.3E1,1.34E2,7.7E1],"tree_param":{"num_deleted":"0","num_feature":"13","num_nodes":"15","size_leaf_vector":"1"}},{"base_weights":[1.8202943E-1,-1.5900752E1,7.6964974E0,-2.4782269E1,-6.5235906E0,1.6219858E0,9.787542E0,-1.4639392E-2,-2.7858847E-1,1.1313804E-2,-1.3086395E-1,-6.101062E-2,1.21735945E-1,7.8812174E-2,2.0182236E-1],"categories":[],"categories_nodes":[],"categories_segments":[],"categories_sizes":[],"default_left":[0,0,0,0,0,0,0,0,0,0,0,0,0,0,0],"id":5,"left_children":[1,3,5,7,9,11,13,-1,-1,-1,-1,-1,-1,-1,-1],"loss_changes":[3.7949543E4,8.166674E3,2.7023691E3,3.6179883E3,2.52671E3,4.637744E3,2.99163E3,0E0,0E0,0E0,0E0,0E0,0E0,0E0,0E0],"parents":[2147483647,0,0,1,1,2,2,3,3,4,4,5,5,6,6],"right_children":[2,4,6,8,10,12,14,-1,-1,-1,-1,-1,-1,-1,-1],"split_conditions":[7E0,4E0,3.1578946E-1,2.8240667E1,1.1E1,1.5E1,5.576923E-1,-1.4639392E-2,-2.7858847E-1,1.1313804E-2,-1.3086395E-1,-6.101062E-2,1.21735945E-1,7.8812174E-2,2.0182236E-1],"split_indices":[0,0,9,2,12,0,8,0,0,0,0,0,0,0,0],"split_type":[0,0,0,0,0,0,0,0,0,0,0,0,0,0,0],"sum_hessian":[3.12E2,9.9E1,2.13E2,5E1,4.9E1,5.5E1,1.58E2,6E0,4.4E1,2.3E1,2.6E1,3.2E1,2.3E1,1.35E2,2.3E1],"tree_param":{"num_deleted":"0","num_feature":"13","num_nodes":"15","size_leaf_vector":"1"}},{"base_weights":[1.2396464E0,1.6832148E-1,6.4429197E0,4.450279E0,-1.1908388E0,8.876137E0,3.6546566E0,3.003431E-2,9.866814E-2,-1.4965952E-2,1.3095228E-1,6.928568E-2,1.0902041E-1,-6.3606915E-3,7.664255E-2],"categories":[],"categories_nodes":[],"categories_segments":[],"categories_sizes":[],"default_left":[0,0,0,0,0,0,0,0,0,0,0,0,0,0,0],"id":6,"left_children":[1,3,5,7,9,11,13,-1,-1,-1,-1,-1,-1,-1,-1],"loss_changes":[1.6322136E3,1.425347E3,3.067832E2,4.3274316E2,8.320569E2,2.704956E1,4.3497717E2,0E0,0E0,0E0,0E0,0E0,0E0,0E0,0E0],"parents":[2147483647,0,0,1,1,2,2,3,3,4,4,5,5,6,6],"right_children":[2,4,6,8,10,12,14,-1,-1,-1,-1,-1,-1,-1,-1],"split_conditions":[2.9330128E1,1.3264285E2,1.3092896E0,1.2E1,3.116883E-1,2.9844318E1,1.7E1,3.003431E-2,9.866814E-2,-1.4965952E-2,1.3095228E-1,6.928568E-2,1.0902041E-1,-6.3606915E-3,7.664255E-2],"split_indices":[1,6,5,12,10,1,12,0,0,0,0,0,0,0,0],"split_type":[0,0,0,0,0,0,0,0,0,0,0,0,0,0,0],"sum_hessian":[2.92E2,2.43E2,4.9E1,5.8E1,1.85E2,2.5E1,2.4E1,4.7E1,1.1E1,1.82E2,3E0,1.5E1,1E1,1.2E1,1.2E1],"tree_param":{"num_deleted":"0","num_feature":"13","num_nodes":"15","size_leaf_vector":"1"}},{"base_weights":[-3.7289068E-1,-2.3453089E1,4.717125E0,-2.8579512E1,-1.196587E1,1.0121461E0,8.188119E0,-3.28255E-1,-1.9880626E-1,-1.5144297E-1,1.0033846E-1,5.556558E-2,-5.6015525E-2,5.2032907E-2,2.0042107E-1],"categories":[],"categories_nodes":[],"categories_segments":[],"categories_sizes":[],"default_left":[0,0,0,0,0,0,0,0,0,0,0,0,0,0,0],"id":7,"left_children":[1,3,5,7,9,11,13,-1,-1,-1,-1,-1,-1,-1,-1],"loss_changes":[3.6411508E4,2.9557656E3,3.258143E3,7.509531E2,1.4805212E3,3.7579915E3,4.5307715E3,0E0,0E0,0E0,0E0,0E0,0E0,0E0,0E0],"parents":[2147483647,0,0,1,1,2,2,3,3,4,4,5,5,6,6],"right_children":[2,4,6,8,10,12,14,-1,-1,-1,-1,-1,-1,-1,-1],"split_conditions":[4E0,3E0,1.2E1,1.8297468E0,6.5789476E-2,3.548387E-1,5.714286E-1,-3.28255E-1,-1.9880626E-1,-1.5144297E-1,1.0033846E-1,5.556558E-2,-5.6015525E-2,5.2032907E-2,2.0042107E-1],"split_indices":[0,0,0,5,10,8,8,0,0,0,0,0,0,0,0],"split_type":[0,0,0,0,0,0,0,0,0,0,0,0,0,0,0],"sum_hessian":[3.08E2,5.5E1,2.53E2,3.7E1,1.8E1,1.23E2,1.3E2,2.3E1,1.4E1,1.6E1,2E0,7.3E1,5E1,1.05E2,2.5E1],"tree_param":{"num_deleted":"0","num_feature":"13","num_nodes":"15","size_leaf_vector":"1"}},{"base_weights":[4.7026347E-2,-2.4684374E1,5.1501446E0,1.9083649E0,-2.6940193E1,-5.8102403E0,7.6913557E0,-6.747536E-2,1.8265985E-1,-3.1878394E-1,-2.1918687E-1,-2.3741312E-2,-2.0436253E-1,6.5278605E-2,1.5807407E-1],"categories":[],"categories_nodes":[],"categories_segments":[],"categories_sizes":[],"default_left":[0,0,0,0,0,0,0,0,0,0,0,0,0,0,0],"id":8,"left_children":[1,3,5,7,9,11,13,-1,-1,-1,-1,-1,-1,-1,-1],"loss_changes":[3.836792E4,3.1708125E3,7.0635576E3,8.312002E2,4.9153125E2,2.363797E3,1.832623E3,0E0,0E0,0E0,0E0,0E0,0E0,0E0,0E0],"parents":[2147483647,0,0,1,1,2,2,3,3,4,4,5,5,6,6],"right_children":[2,4,6,8,10,12,14,-1,-1,-1,-1,-1,-1,-1,-1],"split_conditions":[4E0,1.7873333E1,7E0,3E0,3.7931034E-1,2.9330128E1,1.9E1,-6.747536E-2,1.8265985E-1,-3.1878394E-1,-2.1918687E-1,-2.3741312E-2,-2.0436253E-1,6.5278605E-2,1.5807407E-1],"split_indices":[0,1,0,0,8,1,0,0,0,0,0,0,0,0,0],"split_type":[0,0,0,0,0,0,0,0,0,0,0,0,0,0,0],"sum_hessian":[3.02E2,5.1E1,2.51E2,4E0,4.7E1,4.7E1,2.04E2,3E0,1E0,2.1E1,2.6E1,3.9E1,8E0,1.8E2,2.4E1],"tree_param":{"num_deleted":"0","num_feature":"13","num_nodes":"15","size_leaf_vector":"1"}},{"base_weights":[3.035034E-1,-2.035094E1,6.058416E0,-2.9019842E1,-1.2303487E1,1.631605E0,9.802137E0,-2.7329402E-2,-3.1644937E-1,1.1008881E-1,-1.3950162E-1,-1.0780738E-1,5.4649577E-2,6.0605768E-2,2.3482911E-1],"categories":[],"categories_nodes":[],"categories_segments":[],"categories_sizes":[],"default_left":[0,0,0,0,0,0,0,0,0,0,0,0,0,0,0],"id":9,"left_children":[1,3,5,7,9,11,13,-1,-1,-1,-1,-1,-1,-1,-1],"loss_changes":[3.7090156E4,4.3868105E3,4.0277568E3,2.1216973E3,1.5739272E3,5.4355566E3,6.614422E3,0E0,0E0,0E0,0E0,0E0,0E0,0E0,0E0],"parents":[2147483647,0,0,1,1,2,2,3,3,4,4,5,5,6,6],"right_children":[2,4,6,8,10,12,14,-1,-1,-1,-1,-1,-1,-1,-1],"split_conditions":[5E0,3E0,1.2E1,1.7449549E1,1.7449549E1,2.6923078E-1,5.614035E-1,-2.7329402E-2,-3.1644937E-1,1.1008881E-1,-1.3950162E-1,-1.0780738E-1,5.4649577E-2,6.0605768E-2,2.3482911E-1],"split_indices":[0,0,0,1,1,9,8,0,0,0,0,0,0,0,0],"split_type":[0,0,0,0,0,0,0,0,0,0,0,0,0,0,0],"sum_hessian":[3.1E2,6.7E1,2.43E2,3.1E1,3.6E1,1.12E2,1.31E2,3E0,2.8E1,2E0,3.4E1,2.6E1,8.6E1,1.04E2,2.7E1],"tree_param":{"num_deleted":"0","num_feature":"13","num_nodes":"15","size_leaf_vector":"1"}},{"base_weights":[5.125589E-2,-2.4460114E1,4.641208E0,-2.4169405E0,-2.632437E1,-4.7632775E0,7.15976E0,6.3460685E-2,-6.19421E-2,-2.676997E-1,-3.1362098E-2,-8.273241E-3,-1.8021326E-1,5.297931E-2,1.4310676E-1],"categories":[],"categories_nodes":[],"categories_segments":[],"categories_sizes":[],"default_left":[0,0,0,0,0,0,0,0,0,0,0,0,0,0,0],"id":10,"left_children":[1,3,5,7,9,11,13,-1,-1,-1,-1,-1,-1,-1,-1],"loss_changes":[3.566542E4,1.9910801E3,6.358182E3,2.048101E2,3.9134375E2,2.9595247E3,2.7333906E3,0E0,0E0,0E0,0E0,0E0,0E0,0E0,0E0],"parents":[2147483647,0,0,1,1,2,2,3,3,4,4,5,5,6,6],"right_children":[2,4,6,8,10,12,14,-1,-1,-1,-1,-1,-1,-1,-1],"split_conditions":[4E0,1.7873333E1,7E0,1E0,2.987013E-1,2.9330128E1,5.614035E-1,6.3460685E-2,-6.19421E-2,-2.676997E-1,-3.1362098E-2,-8.273241E-3,-1.8021326E-1,5.297931E-2,1.4310676E-1],"split_indices":[0,1,0,0,10,1,8,0,0,0,0,0,0,0,0],"split_type":[0,0,0,0,0,0,0,0,0,0,0,0,0,0,0],"sum_hessian":[3.15E2,4.9E1,2.66E2,4E0,4.5E1,5.6E1,2.1E2,1E0,3E0,4.4E1,1E0,4.4E1,1.2E1,1.68E2,4.2E1],"tree_param":{"num_deleted":"0","num_feature":"13","num_nodes":"15","size_leaf_vector":"1"}},{"base_weights":[-3.4976828E-1,-1.3808798E1,5.9777246E0,-2.5368206E1,-8.520439E0,1.3600644E0,8.857397E0,-2.7204217E-2,-2.8883034E-1,-4.5796104E-2,-2.5872535E-1,8.9436054E-2,-6.857969E-2,5.7034366E-2,1.8883906E-1],"categories":[],"categories_nodes":[],"categories_segments":[],"categories_sizes":[],"default_left":[0,0,0,0,0,0,0,0,0,0,0,0,0,0,0],"id":11,"left_children":[1,3,5,7,9,11,13,-1,-1,-1,-1,-1,-1,-1,-1],"loss_changes":[2.5034982E4,5.5301016E3,2.6474229E3,2.229916E3,4.3947017E3,4.9224355E3,3.7819531E3,0E0,0E0,0E0,0E0,0E0,0E0,0E0,0E0],"parents":[2147483647,0,0,1,1,2,2,3,3,4,4,5,5,6,6],"right_children":[2,4,6,8,10,12,14,-1,-1,-1,-1,-1,-1,-1,-1],"split_conditions":[7E0,3E0,1.2E1,1.7873333E1,2.9330128E1,3.3333334E-1,5.4E-1,-2.7204217E-2,-2.8883034E-1,-4.5796104E-2,-2.5872535E-1,8.9436054E-2,-6.857969E-2,5.7034366E-2,1.8883906E-1],"split_indices":[0,0,0,1,1,8,8,0,0,0,0,0,0,0,0],"split_type":[0,0,0,0,0,0,0,0,0,0,0,0,0,0,0],"sum_hessian":[2.92E2,9.3E1,1.99E2,2.8E1,6.5E1,7.7E1,1.22E2,4E0,2.4E1,5.4E1,1.1E1,4E1,3.7E1,9.4E1,2.8E1],"tree_param":{"num_deleted":"0","num_feature":"13","num_nodes":"15","size_leaf_vector":"1"}},{"base_weights":[9.691526E-2,-2.2846934E-1,2.4476532E1,1.7063108E-1,-1.1819445E1,7.585059E-2,2.7578667E-1,-4.0797256E-3,1.257523E-1,1.4178303E-2,-2.5340286E-1],"categories":[],"categories_nodes":[],"categories_segments":[],"categories_sizes":[],"default_left":[0,0,0,0,0,0,0,0,0,0,0],"id":12,"left_children":[1,3,5,7,9,-1,-1,-1,-1,-1,-1],"loss_changes":[2.4092158E3,1.3898058E3,4.128418E-1,2.093738E3,1.8257194E3,0E0,0E0,0E0,0E0,0E0,0E0],"parents":[2147483647,0,0,1,1,2,2,3,3,4,4],"right_children":[2,4,6,8,10,-1,-1,-1,-1,-1,-1],"split_conditions":[9.8039216E-1,8.84058E-1,2.2674026E1,8.4E-1,3.205425E1,7.585059E-2,2.7578667E-1,-4.0797256E-3,1.257523E-1,1.4178303E-2,-2.5340286E-1],"split_indices":[9,9,1,9,2,0,0,0,0,0,0],"split_type":[0,0,0,0,0,0,0,0,0,0,0],"sum_hessian":[3.02E2,2.99E2,3E0,2.9E2,9E0,1E0,2E0,2.78E2,1.2E1,5E0,4E0],"tree_param":{"num_deleted":"0","num_feature":"13","num_nodes":"11","size_leaf_vector":"1"}},{"base_weights":[-1.2043923E0,2.57114E0,-4.6067805E0,9.204656E0,-2.6904973E-1,-2.905279E0,-1.5946651E1,2.1087569E-1,1.0810329E-2,6.2671807E-3,-2.1700214E-1,-2.0676203E-2,-2.0709945E-1,1.116518E-2,-2.0282227E-1],"categories":[],"categories_nodes":[],"categories_segments":[],"categories_sizes":[],"default_left":[0,0,0,0,0,0,0,0,0,0,0,0,0,0,0],"id":13,"left_children":[1,3,5,7,9,11,13,-1,-1,-1,-1,-1,-1,-1,-1],"loss_changes":[3.7885176E3,2.6401387E3,2.9443657E3,4.0315603E3,1.9141375E3,1.9855153E3,1.5022183E3,0E0,0E0,0E0,0E0,0E0,0E0,0E0,0E0],"parents":[2147483647,0,0,1,1,2,2,3,3,4,4,5,5,6,6],"right_children":[2,4,6,8,10,12,14,-1,-1,-1,-1,-1,-1,-1,-1],"split_conditions":[3.2E-1,6.4E-1,6.212121E-1,4.8214287E-1,2.9844318E1,6.060606E-1,1.8530247E1,2.1087569E-1,1.0810329E-2,6.2671807E-3,-2.1700214E-1,-2.0676203E-2,-2.0709945E-1,1.116518E-2,-2.0282227E-1],"split_indices":[8,9,9,7,1,7,1,0,0,0,0,0,0,0,0],"split_type":[0,0,0,0,0,0,0,0,0,0,0,0,0,0,0],"sum_hessian":[2.93E2,1.39E2,1.54E2,4.1E1,9.8E1,1.35E2,1.9E1,1.6E1,2.5E1,9.5E1,3E0,1.3E2,5E0,4E0,1.5E1],"tree_param":{"num_deleted":"0","num_feature":"13","num_nodes":"15","size_leaf_vector":"1"}},{"base_weights":[-1.2800663E0,2.4112637E0,-4.694014E0,-4.352238E0,3.9194355E0,-1.2226999E1,-2.1418433E0,-1.7591766E-1,6.529534E-2,-5.859936E-2,5.6756523E-2,-1.8990974E-1,4.010862E-2,-7.579226E-2,2.0737099E-2],"categories":[],"categories_nodes":[],"categories_segments":[],"categories_sizes":[],"default_left":[0,0,0,0,0,0,0,0,0,0,0,0,0,0,0],"id":14,"left_children":[1,3,5,7,9,11,13,-1,-1,-1,-1,-1,-1,-1,-1],"loss_changes":[3.6659004E3,1.4451318E3,2.8768564E3,3.8606736E3,2.0083494E3,4.249805E3,2.628777E3,0E0,0E0,0E0,0E0,0E0,0E0,0E0,0E0],"parents":[2147483647,0,0,1,1,2,2,3,3,4,4,5,5,6,6],"right_children":[2,4,6,8,10,12,14,-1,-1,-1,-1,-1,-1,-1,-1],"split_conditions":[3.2E-1,1.3004666E2,3.943662E-1,7.8571427E-1,2.112676E-1,6.6E-1,1.1E1,-1.7591766E-1,6.529534E-2,-5.859936E-2,5.6756523E-2,-1.8990974E-1,4.010862E-2,-7.579226E-2,2.0737099E-2],"split_indices":[8,6,8,9,9,9,12,0,0,0,0,0,0,0,0],"split_type":[0,0,0,0,0,0,0,0,0,0,0,0,0,0,0],"sum_hessian":[2.89E2,1.39E2,1.5E2,2.5E1,1.14E2,3.7E1,1.13E2,1.1E1,1.4E1,1.7E1,9.7E1,2.6E1,1.1E1,4.9E1,6.4E1],"tree_param":{"num_deleted":"0","num_feature":"13","num_nodes":"15","size_leaf_vector":"1"}},{"base_weights":[-5.295682E-1,-2.375413E1,4.4358807E0,-2.78337E0,-2.5880596E1,-3.5477073E0,7.173793E0,6.435273E-2,-5.9141535E-2,-2.8754032E-1,-1.76421E-1,-1.3224849E-1,3.8714185E-2,-4.538877E-2,8.541742E-2],"categories":[],"categories_nodes":[],"categories_segments":[],"categories_sizes":[],"default_left":[0,0,0,0,0,0,0,0,0,0,0,0,0,0,0],"id":15,"left_children":[1,3,5,7,9,11,13,-1,-1,-1,-1,-1,-1,-1,-1],"loss_changes":[3.470148E4,2.2914297E3,5.446324E3,2.1122865E2,6.2900977E2,4.6461387E3,3.0029033E3,0E0,0E0,0E0,0E0,0E0,0E0,0E0,0E0],"parents":[2147483647,0,0,1,1,2,2,3,3,4,4,5,5,6,6],"right_children":[2,4,6,8,10,12,14,-1,-1,-1,-1,-1,-1,-1,-1],"split_conditions":[4E0,1.7873333E1,3.1578946E-1,1E0,3E0,1.1E1,6E0,6.435273E-2,-5.9141535E-2,-2.8754032E-1,-1.76421E-1,-1.3224849E-1,3.8714185E-2,-4.538877E-2,8.541742E-2],"split_indices":[0,1,9,0,0,0,0,0,0,0,0,0,0,0,0],"split_type":[0,0,0,0,0,0,0,0,0,0,0,0,0,0,0],"sum_hessian":[2.99E2,5.2E1,2.47E2,5E0,4.7E1,6.3E1,1.84E2,1E0,4E0,3.3E1,1.4E1,2.7E1,3.6E1,1.9E1,1.65E2],"tree_param":{"num_deleted":"0","num_feature":"13","num_nodes":"15","size_leaf_vector":"1"}},{"base_weights":[-5.691014E-1,-2.6196688E1,2.9046319E0,6.403097E-2,-2.7378593E1,-1.6374098E0,7.6446214E0,-2.7826104E-2,-2.887567E-1,3.641192E-2,-8.583465E-2,5.1576175E-2,2.019481E-1],"categories":[],"categories_nodes":[],"categories_segments":[],"categories_sizes":[],"default_left":[0,0,0,0,0,0,0,0,0,0,0,0,0],"id":16,"left_children":[1,3,5,-1,7,9,11,-1,-1,-1,-1,-1,-1],"loss_changes":[2.5358736E4,1.4853242E3,5.4163545E3,0E0,1.1347773E3,4.7610986E3,3.7349648E3,0E0,0E0,0E0,0E0,0E0,0E0],"parents":[2147483647,0,0,1,1,2,2,4,4,5,5,6,6],"right_children":[2,4,6,-1,8,10,12,-1,-1,-1,-1,-1,-1],"split_conditions":[3E0,1E0,1.2E1,6.403097E-2,1.2456209E2,3.548387E-1,5.714286E-1,-2.7826104E-2,-2.887567E-1,3.641192E-2,-8.583465E-2,5.1576175E-2,2.019481E-1],"split_indices":[0,0,0,0,6,8,8,0,0,0,0,0,0],"split_type":[0,0,0,0,0,0,0,0,0,0,0,0,0],"sum_hessian":[2.83E2,3.3E1,2.5E2,1E0,3.2E1,1.28E2,1.22E2,2E0,3E1,7.3E1,5.5E1,1.03E2,1.9E1],"tree_param":{"num_deleted":"0","num_feature":"13","num_nodes":"13","size_leaf_vector":"1"}},{"base_weights":[8.6218774E-1,-1.5782761E1,7.4669847E0,-2.7171623E1,-8.178233E0,1.8163408E0,1.1569859E1,-1.9131202E-2,-2.9718602E-1,-3.5809685E-2,-2.2437824E-1,4.0365834E-2,-2.0613128E-1,9.407361E-2,3.1749842E-1],"categories":[],"categories_nodes":[],"categories_segments":[],"categories_sizes":[],"default_left":[0,0,0,0,0,0,0,0,0,0,0,0,0,0,0],"id":17,"left_children":[1,3,5,7,9,11,13,-1,-1,-1,-1,-1,-1,-1,-1],"loss_changes":[3.1339816E4,6.7929434E3,4.708496E3,2.0017988E3,3.1974065E3,4.4157075E3,4.8507393E3,0E0,0E0,0E0,0E0,0E0,0E0,0E0,0E0],"parents":[2147483647,0,0,1,1,2,2,3,3,4,4,5,5,6,6],"right_children":[2,4,6,8,10,12,14,-1,-1,-1,-1,-1,-1,-1,-1],"split_conditions":[6E0,3E0,1.2E1,1.7873333E1,2.9330128E1,6.883117E-1,2.996012E1,-1.9131202E-2,-2.9718602E-1,-3.5809685E-2,-2.2437824E-1,4.0365834E-2,-2.0613128E-1,9.407361E-2,3.1749842E-1],"split_indices":[0,0,0,1,1,8,1,0,0,0,0,0,0,0,0],"split_type":[0,0,0,0,0,0,0,0,0,0,0,0,0,0,0],"sum_hessian":[2.83E2,8E1,2.03E2,3.1E1,4.9E1,8.6E1,1.17E2,3E0,2.8E1,3.8E1,1.1E1,7.9E1,7E0,1.07E2,1E1],"tree_param":{"num_deleted":"0","num_feature":"13","num_nodes":"15","size_leaf_vector":"1"}},{"base_weights":[8.307458E-1,-1.648752E1,7.301851E0,-2.6363323E1,-1.0093035E1,1.0579817E1,3.2842446E-2,6.380647E-2,-2.762541E-1,-4.6543725E-2,-1.7899898E-1,5.3908765E-2,1.4559677E-1,-4.3817986E-2,8.154468E-2],"categories":[],"categories_nodes":[],"categories_segments":[],"categories_sizes":[],"default_left":[0,0,0,0,0,0,0,0,0,0,0,0,0,0,0],"id":18,"left_children":[1,3,5,7,9,11,13,-1,-1,-1,-1,-1,-1,-1,-1],"loss_changes":[3.418916E4,4.97542E3,5.289372E3,1.4986895E3,2.1245498E3,3.0811523E3,2.5455159E3,0E0,0E0,0E0,0E0,0E0,0E0,0E0,0E0],"parents":[2147483647,0,0,1,1,2,2,3,3,4,4,5,5,6,6],"right_children":[2,4,6,8,10,12,14,-1,-1,-1,-1,-1,-1,-1,-1],"split_conditions":[6E0,3E0,1.2280702E-1,1E0,1.3E1,1.2E1,1.5E1,6.380647E-2,-2.762541E-1,-4.6543725E-2,-1.7899898E-1,5.3908765E-2,1.4559677E-1,-4.3817986E-2,8.154468E-2],"split_indices":[0,0,7,0,12,0,0,0,0,0,0,0,0,0,0],"split_type":[0,0,0,0,0,0,0,0,0,0,0,0,0,0,0],"sum_hessian":[3.03E2,8.2E1,2.21E2,3.1E1,5.1E1,1.52E2,6.9E1,1E0,3E1,3.1E1,2E1,6.7E1,8.5E1,4.5E1,2.4E1],"tree_param":{"num_deleted":"0","num_feature":"13","num_nodes":"15","size_leaf_vector":"1"}},{"base_weights":[2.1053836E-1,4.058583E0,-2.716107E0,6.083254E0,-4.2740736E0,-7.5258117E0,1.3987621E0,2.2426957E-1,4.126791E-2,-1.4505176E-1,1.0789266E-2,-9.743045E-2,5.665664E-2,3.9739404E-2,-1.12426564E-1],"categories":[],"categories_nodes":[],"categories_segments":[],"categories_sizes":[],"default_left":[0,0,0,0,0,0,0,0,0,0,0,0,0,0,0],"id":19,"left_children":[1,3,5,7,9,11,13,-1,-1,-1,-1,-1,-1,-1,-1],"loss_changes":[3.389582E3,2.219216E3,3.3948403E3,3.264913E3,1.4395945E3,2.3658389E3,3.0721914E3,0E0,0E0,0E0,0E0,0E0,0E0,0E0,0E0],"parents":[2147483647,0,0,1,1,2,2,3,3,4,4,5,5,6,6],"right_children":[2,4,6,8,10,12,14,-1,-1,-1,-1,-1,-1,-1,-1],"split_conditions":[2.8846154E-1,4.8214287E-1,4.4285715E-1,6.25E-1,6.3380283E-1,4.5639473E1,1.0115525E3,2.2426957E-1,4.126791E-2,-1.4505176E-1,1.0789266E-2,-9.743045E-2,5.665664E-2,3.9739404E-2,-1.12426564E-1],"split_indices":[8,7,8,9,7,2,4,0,0,0,0,0,0,0,0],"split_type":[0,0,0,0,0,0,0,0,0,0,0,0,0,0,0],"sum_hessian":[2.99E2,1.29E2,1.7E2,1.04E2,2.5E1,7.8E1,9.2E1,1E1,9.4E1,8E0,1.7E1,6.7E1,1.1E1,7.7E1,1.5E1],"tree_param":{"num_deleted":"0","num_feature":"13","num_nodes":"15","size_leaf_vector":"1"}},{"base_weights":[4.627428E-1,-2.2926647E1,5.5455637E0,1.387379E0,-2.5385798E1,-3.994624E0,7.684903E0,-6.0593437E-2,1.0853883E-1,-2.848586E-1,-1.8828543E-1,1.0160142E-2,-1.1432196E-1,6.2655166E-2,1.2516549E-1],"categories":[],"categories_nodes":[],"categories_segments":[],"categories_sizes":[],"default_left":[0,0,0,0,0,0,0,0,0,0,0,0,0,0,0],"id":20,"left_children":[1,3,5,7,9,11,13,-1,-1,-1,-1,-1,-1,-1,-1],"loss_changes":[3.6624555E4,3.3237734E3,5.194352E3,4.8873398E2,4.8004688E2,1.7631638E3,1.3411787E3,0E0,0E0,0E0,0E0,0E0,0E0,0E0,0E0],"parents":[2147483647,0,0,1,1,2,2,3,3,4,4,5,5,6,6],"right_children":[2,4,6,8,10,12,14,-1,-1,-1,-1,-1,-1,-1,-1],"split_conditions":[4E0,1.7873333E1,7E0,3E0,1.8297468E0,1.1E1,5.4E-1,-6.0593437E-2,1.0853883E-1,-2.848586E-1,-1.8828543E-1,1.0160142E-2,-1.1432196E-1,6.2655166E-2,1.2516549E-1],"split_indices":[0,1,0,0,5,12,8,0,0,0,0,0,0,0,0],"split_type":[0,0,0,0,0,0,0,0,0,0,0,0,0,0,0],"sum_hessian":[3.06E2,5.4E1,2.52E2,5E0,4.9E1,4.6E1,2.06E2,3E0,2E0,3.1E1,1.8E1,2.8E1,1.8E1,1.61E2,4.5E1],"tree_param":{"num_deleted":"0","num_feature":"13","num_nodes":"15","size_leaf_vector":"1"}},{"base_weights":[-4.7023344E-1,-2.2237438E1,3.6075706E0,3.0206409E0,-2.6007416E1,-4.490782E0,6.403214E0,8.6036384E-2,-7.291235E-2,-3.0791926E-1,-2.1713652E-1,-1.4120455E-1,2.7229464E-2,-4.8310984E-2,8.0869846E-2],"categories":[],"categories_nodes":[],"categories_segments":[],"categories_sizes":[],"default_left":[0,0,0,0,0,0,0,0,0,0,0,0,0,0,0],"id":21,"left_children":[1,3,5,7,9,11,13,-1,-1,-1,-1,-1,-1,-1,-1],"loss_changes":[2.6442654E4,4.5540137E3,5.711422E3,4.657294E2,1.7368164E2,4.5537295E3,3.5763628E3,0E0,0E0,0E0,0E0,0E0,0E0,0E0,0E0],"parents":[2147483647,0,0,1,1,2,2,3,3,4,4,5,5,6,6],"right_children":[2,4,6,8,10,12,14,-1,-1,-1,-1,-1,-1,-1,-1],"split_conditions":[4E0,1.7873333E1,3.1578946E-1,3.7878788E-1,2E0,1.1E1,6E0,8.6036384E-2,-7.291235E-2,-3.0791926E-1,-2.1713652E-1,-1.4120455E-1,2.7229464E-2,-4.8310984E-2,8.0869846E-2],"split_indices":[0,1,9,7,0,0,0,0,0,0,0,0,0,0,0],"split_type":[0,0,0,0,0,0,0,0,0,0,0,0,0,0,0],"sum_hessian":[2.96E2,4.6E1,2.5E2,6E0,4E1,6.4E1,1.86E2,4E0,2E0,1.6E1,2.4E1,2.7E1,3.7E1,2.4E1,1.62E2],"tree_param":{"num_deleted":"0","num_feature":"13","num_nodes":"15","size_leaf_vector":"1"}},{"base_weights":[-2.0185117E-1,-2.1676395E1,4.406864E0,6.4043508E0,-2.4734896E1,2.3970501E-1,8.095037E0,1.1072794E-1,-1.9550249E-2,-3.0149436E-1,-2.079307E-1,-8.3897226E-2,2.556866E-2,9.424162E-2,-2.358096E-3],"categories":[],"categories_nodes":[],"categories_segments":[],"categories_sizes":[],"default_left":[0,0,0,0,0,0,0,0,0,0,0,0,0,0,0],"id":22,"left_children":[1,3,5,7,9,11,13,-1,-1,-1,-1,-1,-1,-1,-1],"loss_changes":[2.9687572E4,4.7103164E3,3.7942544E3,2.557993E2,3.9757422E2,2.360957E3,1.45275E3,0E0,0E0,0E0,0E0,0E0,0E0,0E0,0E0],"parents":[2147483647,0,0,1,1,2,2,3,3,4,4,5,5,6,6],"right_children":[2,4,6,8,10,12,14,-1,-1,-1,-1,-1,-1,-1,-1],"split_conditions":[4E0,1.7873333E1,1.2E1,1.7449549E1,2E0,2.3529412E-1,8.695652E-1,1.1072794E-1,-1.9550249E-2,-3.0149436E-1,-2.079307E-1,-8.3897226E-2,2.556866E-2,9.424162E-2,-2.358096E-3],"split_indices":[0,1,0,1,0,9,9,0,0,0,0,0,0,0,0],"split_type":[0,0,0,0,0,0,0,0,0,0,0,0,0,0,0],"sum_hessian":[2.98E2,5.2E1,2.46E2,5E0,4.7E1,1.16E2,1.3E2,3E0,2E0,1.7E1,3E1,2.4E1,9.2E1,1.12E2,1.8E1],"tree_param":{"num_deleted":"0","num_feature":"13","num_nodes":"15","size_leaf_vector":"1"}},{"base_weights":[1.1918808E0,-2.1334375E1,5.8327355E0,-3.768344E0,-2.3925547E1,-4.0567217E0,8.007957E0,-1.412877E-1,5.2736655E-2,-2.49582E-1,-6.843131E-2,-7.363048E-2,3.4876462E-2,1.8575605E-2,1.0007724E-1],"categories":[],"categories_nodes":[],"categories_segments":[],"categories_sizes":[],"default_left":[0,0,0,0,0,0,0,0,0,0,0,0,0,0,0],"id":23,"left_children":[1,3,5,7,9,11,13,-1,-1,-1,-1,-1,-1,-1,-1],"loss_changes":[3.2427635E4,2.3222188E3,5.561008E3,8.2394293E2,6.406582E2,1.1980544E3,2.5765762E3,0E0,0E0,0E0,0E0,0E0,0E0,0E0,0E0],"parents":[2147483647,0,0,1,1,2,2,3,3,4,4,5,5,6,6],"right_children":[2,4,6,8,10,12,14,-1,-1,-1,-1,-1,-1,-1,-1],"split_conditions":[4E0,2.8240667E1,7E0,2.4941149E1,4.6775955E1,1.2987013E-2,3.0985916E-1,-1.412877E-1,5.2736655E-2,-2.49582E-1,-6.843131E-2,-7.363048E-2,3.4876462E-2,1.8575605E-2,1.0007724E-1],"split_indices":[0,2,0,2,2,7,9,0,0,0,0,0,0,0,0],"split_type":[0,0,0,0,0,0,0,0,0,0,0,0,0,0,0],"sum_hessian":[3.08E2,5.2E1,2.56E2,7E0,4.5E1,4.6E1,2.1E2,3E0,4E0,4.2E1,3E0,3.2E1,1.4E1,5.2E1,1.58E2],"tree_param":{"num_deleted":"0","num_feature":"13","num_nodes":"15","size_leaf_vector":"1"}},{"base_weights":[-1.1455576E0,2.2272341E0,-4.9989223E0,4.105081E0,-6.4225082E0,-2.9694271E1,-2.9496799E0,1.7338527E-2,1.8740402E-1,-1.7615004E-2,-1.5568373E-1,6.303005E-2,-3.3924296E-1,8.5461125E-2,-4.5671485E-2],"categories":[],"categories_nodes":[],"categories_segments":[],"categories_sizes":[],"default_left":[0,0,0,0,0,0,0,0,0,0,0,0,0,0,0],"id":24,"left_children":[1,3,5,7,9,11,13,-1,-1,-1,-1,-1,-1,-1,-1],"loss_changes":[4.0400789E3,2.722685E3,7.2503906E3,4.721912E3,1.251445E3,1.88879E3,2.549233E3,0E0,0E0,0E0,0E0,0E0,0E0,0E0,0E0],"parents":[2147483647,0,0,1,1,2,2,3,3,4,4,5,5,6,6],"right_children":[2,4,6,8,10,12,14,-1,-1,-1,-1,-1,-1,-1,-1],"split_conditions":[3.409091E-1,4.8214287E-1,3.6619717E-1,1.9298245E-1,2.4860624E1,1.7449549E1,1.8530247E1,1.7338527E-2,1.8740402E-1,-1.7615004E-2,-1.5568373E-1,6.303005E-2,-3.3924296E-1,8.5461125E-2,-4.5671485E-2],"split_indices":[8,7,8,7,1,1,1,0,0,0,0,0,0,0,0],"split_type":[0,0,0,0,0,0,0,0,0,0,0,0,0,0,0],"sum_hessian":[3.09E2,1.65E2,1.44E2,1.36E2,2.9E1,1E1,1.34E2,1.18E2,1.8E1,2E1,9E0,1E0,9E0,1.6E1,1.18E2],"tree_param":{"num_deleted":"0","num_feature":"13","num_nodes":"15","size_leaf_vector":"1"}},{"base_weights":[-1.3438711E0,-2.268653E1,3.1988351E0,2.9643939E0,-2.5954653E1,-4.6282277E0,4.998353E0,6.396091E-2,-8.812895E-2,-2.6407996E-1,-2.323747E-2,-2.2139318E-1,-1.0985457E-2,2.6055187E-2,8.4711276E-2],"categories":[],"categories_nodes":[],"categories_segments":[],"categories_sizes":[],"default_left":[0,0,0,0,0,0,0,0,0,0,0,0,0,0,0],"id":25,"left_children":[1,3,5,7,9,11,13,-1,-1,-1,-1,-1,-1,-1,-1],"loss_changes":[2.983727E4,4.603783E3,3.6007083E3,3.392807E2,4.5285352E2,2.9424907E3,1.6980508E3,0E0,0E0,0E0,0E0,0E0,0E0,0E0,0E0],"parents":[2147483647,0,0,1,1,2,2,3,3,4,4,5,5,6,6],"right_children":[2,4,6,8,10,12,14,-1,-1,-1,-1,-1,-1,-1,-1],"split_conditions":[4E0,1.7873333E1,7E0,1.3888889E-2,2.987013E-1,1.3264285E2,1.5E1,6.396091E-2,-8.812895E-2,-2.6407996E-1,-2.323747E-2,-2.2139318E-1,-1.0985457E-2,2.6055187E-2,8.4711276E-2],"split_indices":[0,1,0,11,10,6,0,0,0,0,0,0,0,0,0],"split_type":[0,0,0,0,0,0,0,0,0,0,0,0,0,0,0],"sum_hessian":[3.06E2,5.3E1,2.53E2,6E0,4.7E1,4.7E1,2.06E2,5E0,1E0,4.6E1,1E0,7E0,4E1,1.23E2,8.3E1],"tree_param":{"num_deleted":"0","num_feature":"13","num_nodes":"15","size_leaf_vector":"1"}},{"base_weights":[3.3163792E-1,3.7554352E0,-2.7431266E0,-1.9206334E0,6.930147E0,-8.507938E0,2.0480917E0,-3.1774696E-2,8.0352165E-2,5.4847553E-2,2.1059816E-1,2.5563598E-2,-1.1031942E-1,-1.2462934E-2,9.698453E-2],"categories":[],"categories_nodes":[],"categories_segments":[],"categories_sizes":[],"default_left":[0,0,0,0,0,0,0,0,0,0,0,0,0,0,0],"id":26,"left_children":[1,3,5,7,9,11,13,-1,-1,-1,-1,-1,-1,-1,-1],"loss_changes":[3.1158755E3,2.5360938E3,4.326219E3,6.636881E2,1.7225532E3,2.0109712E3,2.1795657E3,0E0,0E0,0E0,0E0,0E0,0E0,0E0,0E0],"parents":[2147483647,0,0,1,1,2,2,3,3,4,4,5,5,6,6],"right_children":[2,4,6,8,10,12,14,-1,-1,-1,-1,-1,-1,-1,-1],"split_conditions":[3.2E-1,2.2674026E1,4.528302E-1,2.7272728E-1,6.1926666E1,9.397815E2,2.9330128E1,-3.1774696E-2,8.0352165E-2,5.4847553E-2,2.1059816E-1,2.5563598E-2,-1.1031942E-1,-1.2462934E-2,9.698453E-2],"split_indices":[8,1,8,8,3,4,1,0,0,0,0,0,0,0,0],"split_type":[0,0,0,0,0,0,0,0,0,0,0,0,0,0,0],"sum_hessian":[2.94E2,1.39E2,1.55E2,5E1,8.9E1,7E1,8.5E1,4.5E1,5E0,8.2E1,7E0,1.3E1,5.7E1,6E1,2.5E1],"tree_param":{"num_deleted":"0","num_feature":"13","num_nodes":"15","size_leaf_vector":"1"}},{"base_weights":[4.9313605E-1,-2.0702341E1,4.862269E0,6.3823595E0,-2.365663E1,-3.8802097E0,6.94045E0,1.0930004E-1,-1.8086199E-2,-2.9605097E-1,-2.0055656E-1,-2.220464E-2,-2.241217E-1,9.639154E-2,2.3190316E-2],"categories":[],"categories_nodes":[],"categories_segments":[],"categories_sizes":[],"default_left":[0,0,0,0,0,0,0,0,0,0,0,0,0,0,0],"id":27,"left_children":[1,3,5,7,9,11,13,-1,-1,-1,-1,-1,-1,-1,-1],"loss_changes":[2.8715867E4,4.391834E3,4.696223E3,2.4326624E2,4.3442578E2,1.4881517E3,2.571789E3,0E0,0E0,0E0,0E0,0E0,0E0,0E0,0E0],"parents":[2147483647,0,0,1,1,2,2,3,3,4,4,5,5,6,6],"right_children":[2,4,6,8,10,12,14,-1,-1,-1,-1,-1,-1,-1,-1],"split_conditions":[4E0,1.7873333E1,7E0,1.7449549E1,2E0,6.136364E-1,5.357143E-2,1.0930004E-1,-1.8086199E-2,-2.9605097E-1,-2.0055656E-1,-2.220464E-2,-2.241217E-1,9.639154E-2,2.3190316E-2],"split_indices":[0,1,0,1,0,7,7,0,0,0,0,0,0,0,0],"split_type":[0,0,0,0,0,0,0,0,0,0,0,0,0,0,0],"sum_hessian":[3.08E2,5.2E1,2.56E2,5E0,4.7E1,4.9E1,2.07E2,3E0,2E0,1.5E1,3.2E1,4.6E1,3E0,1.3E2,7.7E1],"tree_param":{"num_deleted":"0","num_feature":"13","num_nodes":"15","size_leaf_vector":"1"}},{"base_weights":[1.5310939E-1,-2.0262127E1,4.3006153E0,-2.3672749E1,-1.0498454E1,-3.6710348E0,6.155216E0,-2.4210508E-1,-2.1566905E-2,-2.7589262E-2,-1.8949497E-1,-1.3198802E-1,-8.1639085E-3,7.276681E-2,-3.964059E-2],"categories":[],"categories_nodes":[],"categories_segments":[],"categories_sizes":[],"default_left":[0,0,0,0,0,0,0,0,0,0,0,0,0,0,0],"id":28,"left_children":[1,3,5,7,9,11,13,-1,-1,-1,-1,-1,-1,-1,-1],"loss_changes":[2.5573506E4,1.4497832E3,3.7334375E3,3.7589258E2,9.2882605E2,1.2947471E3,2.3439214E3,0E0,0E0,0E0,0E0,0E0,0E0,0E0,0E0],"parents":[2147483647,0,0,1,1,2,2,3,3,4,4,5,5,6,6],"right_children":[2,4,6,8,10,12,14,-1,-1,-1,-1,-1,-1,-1,-1],"split_conditions":[4E0,2.8571429E-2,7E0,2.987013E-1,5.857143E-1,1.5492958E-1,8.636364E-1,-2.4210508E-1,-2.1566905E-2,-2.7589262E-2,-1.8949497E-1,-1.3198802E-1,-8.1639085E-3,7.276681E-2,-3.964059E-2],"split_indices":[0,7,0,10,7,9,9,0,0,0,0,0,0,0,0],"split_type":[0,0,0,0,0,0,0,0,0,0,0,0,0,0,0],"sum_hessian":[3E2,5E1,2.5E2,3.6E1,1.4E1,4.7E1,2.03E2,3.5E1,1E0,8E0,6E0,1E1,3.7E1,1.83E2,2E1],"tree_param":{"num_deleted":"0","num_feature":"13","num_nodes":"15","size_leaf_vector":"1"}},{"base_weights":[-7.537364E-1,3.4660747E0,-4.7084126E0,5.182238E0,-5.459325E0,-3.6903715E0,-3.5936832E-1,6.7899324E-2,-2.452451E-2,-2.7295372E-2,-1.5832567E-1,6.668353E-2,-5.504586E-2],"categories":[],"categories_nodes":[],"categories_segments":[],"categories_sizes":[],"default_left":[0,0,0,0,0,0,0,0,0,0,0,0,0],"id":29,"left_children":[1,3,5,7,9,11,-1,-1,-1,-1,-1,-1,-1],"loss_changes":[5.239659E3,2.3565432E3,5.0176543E3,1.5877556E3,6.647033E2,3.0059937E3,0E0,0E0,0E0,0E0,0E0,0E0,0E0],"parents":[2147483647,0,0,1,1,2,2,3,3,4,4,5,5],"right_children":[2,4,6,8,10,12,-1,-1,-1,-1,-1,-1,-1],"split_conditions":[3.2E-1,1.9E1,6.315789E-1,4.8214287E-1,8.627451E-1,3.0139639E1,-3.5936832E-1,6.7899324E-2,-2.452451E-2,-2.7295372E-2,-1.5832567E-1,6.668353E-2,-5.504586E-2],"split_indices":[8,12,7,7,9,2,0,0,0,0,0,0,0],"split_type":[0,0,0,0,0,0,0,0,0,0,0,0,0],"sum_hessian":[3.12E2,1.51E2,1.61E2,1.27E2,2.4E1,1.57E2,4E0,1.05E2,2.2E1,2E1,4E0,2.3E1,1.34E2],"tree_param":{"num_deleted":"0","num_feature":"13","num_nodes":"13","size_leaf_vector":"1"}},{"base_weights":[-8.4877574E-1,2.2666779E0,-4.326132E0,-3.2047576E-1,7.6959133E0,-1.1168687E1,-4.536691E-1,2.4122106E-2,-1.1360867E-1,1.7289464E-1,2.5422031E-2,5.8697537E-5,-1.5699072E-1,-8.686479E-2,3.8028408E-2],"categories":[],"categories_nodes":[],"categories_segments":[],"categories_sizes":[],"default_left":[0,0,0,0,0,0,0,0,0,0,0,0,0,0,0],"id":30,"left_children":[1,3,5,7,9,11,13,-1,-1,-1,-1,-1,-1,-1,-1],"loss_changes":[3.3032024E3,2.2639153E3,3.8105789E3,3.3460974E3,2.5270508E3,2.6325947E3,3.292036E3,0E0,0E0,0E0,0E0,0E0,0E0,0E0,0E0],"parents":[2147483647,0,0,1,1,2,2,3,3,4,4,5,5,6,6],"right_children":[2,4,6,8,10,12,14,-1,-1,-1,-1,-1,-1,-1,-1],"split_conditions":[3.508772E-1,2.5862068E-1,4.5070422E-1,1.8E-1,6.6233766E-1,2.2674026E1,2.6923078E-1,2.4122106E-2,-1.1360867E-1,1.7289464E-1,2.5422031E-2,5.8697537E-5,-1.5699072E-1,-8.686479E-2,3.8028408E-2],"split_indices":[8,8,8,8,9,1,9,0,0,0,0,0,0,0,0],"split_type":[0,0,0,0,0,0,0,0,0,0,0,0,0,0,0],"sum_hessian":[3.03E2,1.6E2,1.43E2,1.09E2,5.1E1,5.1E1,9.2E1,8.8E1,2.1E1,1.7E1,3.4E1,1.5E1,3.6E1,3.1E1,6.1E1],"tree_param":{"num_deleted":"0","num_feature":"13","num_nodes":"15","size_leaf_vector":"1"}},{"base_weights":[3.7237757E-1,5.9633862E-2,2.357869E1,4.9203062E-1,-1.7986008E1,7.072241E-2,2.6723424E-1,-3.6420855E-3,1.1558936E-1,-7.704376E-2,-2.0557785E-1],"categories":[],"categories_nodes":[],"categories_segments":[],"categories_sizes":[],"default_left":[0,0,0,0,0,0,0,0,0,0,0],"id":31,"left_children":[1,3,5,7,9,-1,-1,-1,-1,-1,-1],"loss_changes":[2.1831396E3,2.334107E3,1.863916E1,2.7711782E3,2.6709717E1,0E0,0E0,0E0,0E0,0E0,0E0],"parents":[2147483647,0,0,1,1,2,2,3,3,4,4],"right_children":[2,4,6,8,10,-1,-1,-1,-1,-1,-1],"split_conditions":[9.8039216E-1,9.4E-1,2.2674026E1,8.4E-1,9.6428573E-1,7.072241E-2,2.6723424E-1,-3.6420855E-3,1.1558936E-1,-7.704376E-2,-2.0557785E-1],"split_indices":[9,9,1,9,9,0,0,0,0,0,0],"split_type":[0,0,0,0,0,0,0,0,0,0,0],"sum_hessian":[3E2,2.97E2,3E0,2.91E2,6E0,1E0,2E0,2.71E2,2E1,2E0,4E0],"tree_param":{"num_deleted":"0","num_feature":"13","num_nodes":"11","size_leaf_vector":"1"}},{"base_weights":[8.106745E-1,-2.0683176E1,5.1231775E0,1.13918085E1,-2.2925192E1,-2.5556107E0,6.8336573E0,1.5886085E-1,-1.0455115E-2,-2.6931253E-1,-1.696661E-1,1.1256938E-3,-1.3833767E-1,7.606646E-2,-5.34629E-2],"categories":[],"categories_nodes":[],"categories_segments":[],"categories_sizes":[],"default_left":[0,0,0,0,0,0,0,0,0,0,0,0,0,0,0],"id":32,"left_children":[1,3,5,7,9,11,13,-1,-1,-1,-1,-1,-1,-1,-1],"loss_changes":[2.828442E4,3.928705E3,3.3536045E3,2.4019623E2,6.8884766E2,1.4158884E3,1.9989775E3,0E0,0E0,0E0,0E0,0E0,0E0,0E0,0E0],"parents":[2147483647,0,0,1,1,2,2,3,3,4,4,5,5,6,6],"right_children":[2,4,6,8,10,12,14,-1,-1,-1,-1,-1,-1,-1,-1],"split_conditions":[4E0,1.7873333E1,7E0,1.7449549E1,4.090909E-1,2.476842E2,6.883117E-1,1.5886085E-1,-1.0455115E-2,-2.6931253E-1,-1.696661E-1,1.1256938E-3,-1.3833767E-1,7.606646E-2,-5.34629E-2],"split_indices":[0,1,0,1,8,6,8,0,0,0,0,0,0,0,0],"split_type":[0,0,0,0,0,0,0,0,0,0,0,0,0,0,0],"sum_hessian":[3.03E2,5E1,2.53E2,3E0,4.7E1,4.6E1,2.07E2,2E0,1E0,2.6E1,2.1E1,3.8E1,8E0,1.95E2,1.2E1],"tree_param":{"num_deleted":"0","num_feature":"13","num_nodes":"15","size_leaf_vector":"1"}},{"base_weights":[1.4725673E0,2.5038128E0,-5.1532598E0,1.3872457E0,1.0210074E1,-2.534484E0,-2.3501548E-1,1.8606858E-2,-2.0289695E-1,-1.1025057E-3,1.9929807E-1,-7.7197114E-3,-1.1512138E-1],"categories":[],"categories_nodes":[],"categories_segments":[],"categories_sizes":[],"default_left":[0,0,0,0,0,0,0,0,0,0,0,0,0],"id":33,"left_children":[1,3,5,7,9,11,-1,-1,-1,-1,-1,-1,-1],"loss_changes":[2.076425E3,2.2402305E3,1.910488E3,2.3981816E3,3.312454E3,5.765725E2,0E0,0E0,0E0,0E0,0E0,0E0,0E0],"parents":[2147483647,0,0,1,1,2,2,3,3,4,4,5,5],"right_children":[2,4,6,8,10,12,-1,-1,-1,-1,-1,-1,-1],"split_conditions":[4.8214287E-1,1.9298245E-1,3.5849056E-1,1.5384616E-1,3.392857E-1,7.5714284E-1,-2.3501548E-1,1.8606858E-2,-2.0289695E-1,-1.1025057E-3,1.9929807E-1,-7.7197114E-3,-1.1512138E-1],"split_indices":[7,7,9,7,9,7,0,0,0,0,0,0,0],"split_type":[0,0,0,0,0,0,0,0,0,0,0,0,0],"sum_hessian":[3.01E2,2.61E2,4E1,2.29E2,3.2E1,3.6E1,4E0,2.25E2,4E0,1.6E1,1.6E1,3.1E1,5E0],"tree_param":{"num_deleted":"0","num_feature":"13","num_nodes":"13","size_leaf_vector":"1"}},{"base_weights":[-6.7072165E-1,-1.7566553E1,4.211569E0,1.5798994E0,-2.018946E1,1.512056E-1,7.509433E0,3.9739855E-2,-8.786394E-2,-2.5709823E-1,-1.3592194E-1,-5.2408133E-2,2.2776444E-2,2.3004344E-2,9.08055E-2],"categories":[],"categories_nodes":[],"categories_segments":[],"categories_sizes":[],"default_left":[0,0,0,0,0,0,0,0,0,0,0,0,0,0,0],"id":34,"left_children":[1,3,5,7,9,11,13,-1,-1,-1,-1,-1,-1,-1,-1],"loss_changes":[2.465611E4,3.3965957E3,3.1054663E3,2.5827716E2,1.7992871E3,1.2158455E3,1.0266567E3,0E0,0E0,0E0,0E0,0E0,0E0,0E0,0E0],"parents":[2147483647,0,0,1,1,2,2,3,3,4,4,5,5,6,6],"right_children":[2,4,6,8,10,12,14,-1,-1,-1,-1,-1,-1,-1,-1],"split_conditions":[5E0,1.7873333E1,1.2E1,1.3888889E-2,3E0,2.2398039E1,4E0,3.9739855E-2,-8.786394E-2,-2.5709823E-1,-1.3592194E-1,-5.2408133E-2,2.2776444E-2,2.3004344E-2,9.08055E-2],"split_indices":[0,1,0,11,0,1,12,0,0,0,0,0,0,0,0],"split_type":[0,0,0,0,0,0,0,0,0,0,0,0,0,0,0],"sum_hessian":[2.97E2,6.6E1,2.31E2,8E0,5.8E1,1.04E2,1.27E2,7E0,1E0,3E1,2.8E1,2.9E1,7.5E1,3E1,9.7E1],"tree_param":{"num_deleted":"0","num_feature":"13","num_nodes":"15","size_leaf_vector":"1"}},{"base_weights":[2.4405813E-1,-1.9528606E1,4.463346E0,1.2574607E0,-2.1675295E1,-2.0313144E0,5.9939556E0,-6.039114E-2,1.05670735E-1,-3.0564734E-1,-1.5997632E-1,3.6751619E-3,-1.2733617E-1,9.772449E-2,3.2228446E-3],"categories":[],"categories_nodes":[],"categories_segments":[],"categories_sizes":[],"default_left":[0,0,0,0,0,0,0,0,0,0,0,0,0,0,0],"id":35,"left_children":[1,3,5,7,9,11,13,-1,-1,-1,-1,-1,-1,-1,-1],"loss_changes":[2.561569E4,2.4368008E3,2.5271953E3,4.713855E2,1.9841289E3,1.2626575E3,4.3900776E3,0E0,0E0,0E0,0E0,0E0,0E0,0E0,0E0],"parents":[2147483647,0,0,1,1,2,2,3,3,4,4,5,5,6,6],"right_children":[2,4,6,8,10,12,14,-1,-1,-1,-1,-1,-1,-1,-1],"split_conditions":[4E0,1.7873333E1,7E0,3E0,2E0,2.9330128E1,5.172414E-2,-6.039114E-2,1.05670735E-1,-3.0564734E-1,-1.5997632E-1,3.6751619E-3,-1.2733617E-1,9.772449E-2,3.2228446E-3],"split_indices":[0,1,0,0,0,1,7,0,0,0,0,0,0,0,0],"split_type":[0,0,0,0,0,0,0,0,0,0,0,0,0,0,0],"sum_hessian":[3.05E2,5.3E1,2.52E2,5E0,4.8E1,4.8E1,2.04E2,3E0,2E0,1.7E1,3.1E1,4E1,8E0,1.22E2,8.2E1],"tree_param":{"num_deleted":"0","num_feature":"13","num_nodes":"15","size_leaf_vector":"1"}},{"base_weights":[1.5964936E-1,-1.6621952E1,5.1155667E0,-2.2263186E1,-9.622291E0,8.056219E0,7.1256465E-1,6.067292E-2,-2.3192856E-1,-1.2261357E-1,1.2576279E-1,-3.897968E-2,1.0163128E-1,-1.7192271E-1,2.0972457E-2],"categories":[],"categories_nodes":[],"categories_segments":[],"categories_sizes":[],"default_left":[0,0,0,0,0,0,0,0,0,0,0,0,0,0,0],"id":36,"left_children":[1,3,5,7,9,11,13,-1,-1,-1,-1,-1,-1,-1,-1],"loss_changes":[2.553451E4,2.5498496E3,3.0628647E3,1.1415605E3,2.0874573E3,3.61608E3,2.4161355E3,0E0,0E0,0E0,0E0,0E0,0E0,0E0,0E0],"parents":[2147483647,0,0,1,1,2,2,3,3,4,4,5,5,6,6],"right_children":[2,4,6,8,10,12,14,-1,-1,-1,-1,-1,-1,-1,-1],"split_conditions":[5E0,3E0,5.172414E-2,1E0,6.5789476E-2,7E0,1.2456209E2,6.067292E-2,-2.3192856E-1,-1.2261357E-1,1.2576279E-1,-3.897968E-2,1.0163128E-1,-1.7192271E-1,2.0972457E-2],"split_indices":[0,0,7,0,10,0,6,0,0,0,0,0,0,0,0],"split_type":[0,0,0,0,0,0,0,0,0,0,0,0,0,0,0],"sum_hessian":[3.05E2,6.9E1,2.36E2,3.7E1,3.2E1,1.41E2,9.5E1,1E0,3.6E1,2.9E1,3E0,2.1E1,1.2E2,6E0,8.9E1],"tree_param":{"num_deleted":"0","num_feature":"13","num_nodes":"15","size_leaf_vector":"1"}},{"base_weights":[7.407231E-1,-1.9199167E1,4.5815825E0,8.34281E0,-2.1892591E1,-1.042486E-1,9.156673E0,1.5670611E-1,-1.7659293E-2,-2.5164372E-1,-1.308418E-1,1.2354227E-2,-8.0620594E-2,1.23734325E-1,1.6635567E-2],"categories":[],"categories_nodes":[],"categories_segments":[],"categories_sizes":[],"default_left":[0,0,0,0,0,0,0,0,0,0,0,0,0,0,0],"id":37,"left_children":[1,3,5,7,9,11,13,-1,-1,-1,-1,-1,-1,-1,-1],"loss_changes":[2.2757512E4,3.7433926E3,5.339043E3,3.9804733E2,9.3878906E2,1.3319054E3,3.0164639E3,0E0,0E0,0E0,0E0,0E0,0E0,0E0,0E0],"parents":[2147483647,0,0,1,1,2,2,3,3,4,4,5,5,6,6],"right_children":[2,4,6,8,10,12,14,-1,-1,-1,-1,-1,-1,-1,-1],"split_conditions":[4E0,1.7873333E1,1.2E1,1.7449549E1,3E0,4.5614034E-1,1.2280702E-1,1.5670611E-1,-1.7659293E-2,-2.5164372E-1,-1.308418E-1,1.2354227E-2,-8.0620594E-2,1.23734325E-1,1.6635567E-2],"split_indices":[0,1,0,1,0,7,7,0,0,0,0,0,0,0,0],"split_type":[0,0,0,0,0,0,0,0,0,0,0,0,0,0,0],"sum_hessian":[2.95E2,4.7E1,2.48E2,4E0,4.3E1,1.23E2,1.25E2,2E0,2E0,3E1,1.3E1,1.06E2,1.7E1,8.7E1,3.8E1],"tree_param":{"num_deleted":"0","num_feature":"13","num_nodes":"15","size_leaf_vector":"1"}},{"base_weights":[-3.4881882E-2,-2.965305E-1,2.622882E-1,-6.3609487E-1,1.99329E1,-9.513924E-3,1.796756E-1,2.2136512E-1,5.559225E-2],"categories":[],"categories_nodes":[],"categories_segments":[],"categories_sizes":[],"default_left":[0,0,0,0,0,0,0,0,0],"id":38,"left_children":[1,3,-1,5,7,-1,-1,-1,-1],"loss_changes":[2.089952E3,2.0803066E3,0E0,1.7592029E3,3.5308105E1,0E0,0E0,0E0,0E0],"parents":[2147483647,0,0,1,1,3,3,4,4],"right_children":[2,4,-1,6,8,-1,-1,-1,-1],"split_conditions":[9.8039216E-1,3.116883E-1,2.622882E-1,8.6E-1,2.6760563E-1,-9.513924E-3,1.796756E-1,2.2136512E-1,5.559225E-2],"split_indices":[9,10,0,8,8,0,0,0,0],"split_type":[0,0,0,0,0,0,0,0,0],"sum_hessian":[3.02E2,3E2,2E0,2.96E2,4E0,2.92E2,4E0,3E0,1E0],"tree_param":{"num_deleted":"0","num_feature":"13","num_nodes":"9","size_leaf_vector":"1"}},{"base_weights":[-4.4865718E-1,-1.6851517E1,4.113791E0,-2.3733387E1,-8.719743E0,-1.2243367E0,6.7731586E0,-2.3239974E-2,-2.6606268E-1,-5.3261537E-2,-1.9109228E-1,1.9676782E-2,-1.22304864E-1,3.523075E-2,1.8090937E-1],"categories":[],"categories_nodes":[],"categories_segments":[],"categories_sizes":[],"default_left":[0,0,0,0,0,0,0,0,0,0,0,0,0,0,0],"id":39,"left_children":[1,3,5,7,9,11,13,-1,-1,-1,-1,-1,-1,-1,-1],"loss_changes":[2.1323088E4,3.2626816E3,3.1740103E3,1.9678848E3,9.559507E2,2.6589502E3,5.4170396E3,0E0,0E0,0E0,0E0,0E0,0E0,0E0,0E0],"parents":[2147483647,0,0,1,1,2,2,3,3,4,4,5,5,6,6],"right_children":[2,4,6,8,10,12,14,-1,-1,-1,-1,-1,-1,-1,-1],"split_conditions":[5E0,3E0,1E1,1.7873333E1,2.9330128E1,9E0,5.4385966E-1,-2.3239974E-2,-2.6606268E-1,-5.3261537E-2,-1.9109228E-1,1.9676782E-2,-1.22304864E-1,3.523075E-2,1.8090937E-1],"split_indices":[0,0,0,1,1,0,8,0,0,0,0,0,0,0,0],"split_type":[0,0,0,0,0,0,0,0,0,0,0,0,0,0,0],"sum_hessian":[2.83E2,6.1E1,2.22E2,3.2E1,2.9E1,7.4E1,1.48E2,4E0,2.8E1,2.3E1,6E0,5.8E1,1.6E1,1.16E2,3.2E1],"tree_param":{"num_deleted":"0","num_feature":"13","num_nodes":"15","size_leaf_vector":"1"}},{"base_weights":[5.499916E-1,-1.0718383E1,6.1527867E0,-1.6816921E1,-5.0001197E0,-1.7988704E0,8.587059E0,-1.9560334E-1,1.6540693E-2,-8.683269E-4,-1.1191358E-1,-1.2247952E-1,5.1091097E-2,6.280167E-2,1.8496616E-1],"categories":[],"categories_nodes":[],"categories_segments":[],"categories_sizes":[],"default_left":[0,0,0,0,0,0,0,0,0,0,0,0,0,0,0],"id":40,"left_children":[1,3,5,7,9,11,13,-1,-1,-1,-1,-1,-1,-1,-1],"loss_changes":[1.8627459E4,3.3334727E3,3.8286782E3,2.4140137E3,1.5808335E3,3.4551326E3,3.3357402E3,0E0,0E0,0E0,0E0,0E0,0E0,0E0,0E0],"parents":[2147483647,0,0,1,1,2,2,3,3,4,4,5,5,6,6],"right_children":[2,4,6,8,10,12,14,-1,-1,-1,-1,-1,-1,-1,-1],"split_conditions":[7E0,4E0,3.1578946E-1,6.5789476E-2,3.409091E-1,1.2E1,5.3846157E-1,-1.9560334E-1,1.6540693E-2,-8.683269E-4,-1.1191358E-1,-1.2247952E-1,5.1091097E-2,6.280167E-2,1.8496616E-1],"split_indices":[0,0,9,10,8,0,8,0,0,0,0,0,0,0,0],"split_type":[0,0,0,0,0,0,0,0,0,0,0,0,0,0,0],"sum_hessian":[2.93E2,9.7E1,1.96E2,4.6E1,5.1E1,4.6E1,1.5E2,4E1,6E0,2.9E1,2.2E1,1.8E1,2.8E1,1.23E2,2.7E1],"tree_param":{"num_deleted":"0","num_feature":"13","num_nodes":"15","size_leaf_vector":"1"}},{"base_weights":[-6.009908E-1,-9.0682524E-1,2.2792675E1,-1.2068918E0,2.1899891E-1,2.598861E-1,6.602435E-2,-5.98473E-3,-1.07393384E-1],"categories":[],"categories_nodes":[],"categories_segments":[],"categories_sizes":[],"default_left":[0,0,0,0,0,0,0,0,0],"id":41,"left_children":[1,3,5,7,-1,-1,-1,-1,-1],"loss_changes":[2.217128E3,2.106865E3,3.5383545E1,1.7392883E3,0E0,0E0,0E0,0E0,0E0],"parents":[2147483647,0,0,1,1,2,2,3,3],"right_children":[2,4,6,8,-1,-1,-1,-1,-1],"split_conditions":[9.8039216E-1,3.116883E-1,5.1E1,8.636364E-1,2.1899891E-1,2.598861E-1,6.602435E-2,-5.98473E-3,-1.07393384E-1],"split_indices":[9,10,3,9,0,0,0,0,0],"split_type":[0,0,0,0,0,0,0,0,0],"sum_hessian":[3.06E2,3.03E2,3E0,3E2,3E0,2E0,1E0,2.83E2,1.7E1],"tree_param":{"num_deleted":"0","num_feature":"13","num_nodes":"9","size_leaf_vector":"1"}},{"base_weights":[-8.0521387E-1,-1.2632903E1,5.549581E0,-2.200685E1,-7.095893E0,8.272721E0,1.170567E0,-2.2714216E-2,-2.4136579E-1,-3.4061722E-2,-2.0397788E-1,9.747261E-2,-1.1815484E-1,-3.8506594E-2,6.974409E-2],"categories":[],"categories_nodes":[],"categories_segments":[],"categories_sizes":[],"default_left":[0,0,0,0,0,0,0,0,0,0,0,0,0,0,0],"id":42,"left_children":[1,3,5,7,9,11,13,-1,-1,-1,-1,-1,-1,-1,-1],"loss_changes":[2.3445658E4,5.50134E3,2.4110244E3,1.6264199E3,3.3661409E3,3.8177754E3,2.329106E3,0E0,0E0,0E0,0E0,0E0,0E0,0E0,0E0],"parents":[2147483647,0,0,1,1,2,2,3,3,4,4,5,5,6,6],"right_children":[2,4,6,8,10,12,14,-1,-1,-1,-1,-1,-1,-1,-1],"split_conditions":[7E0,3E0,5.172414E-2,1.7873333E1,2.9330128E1,6.9736844E-1,1.5E1,-2.2714216E-2,-2.4136579E-1,-3.4061722E-2,-2.0397788E-1,9.747261E-2,-1.1815484E-1,-3.8506594E-2,6.974409E-2],"split_indices":[0,0,7,1,1,8,0,0,0,0,0,0,0,0,0],"split_type":[0,0,0,0,0,0,0,0,0,0,0,0,0,0,0],"sum_hessian":[3.1E2,1.08E2,2.02E2,3.9E1,6.9E1,1.24E2,7.8E1,4E0,3.5E1,5.5E1,1.4E1,1.16E2,8E0,4.2E1,3.6E1],"tree_param":{"num_deleted":"0","num_feature":"13","num_nodes":"15","size_leaf_vector":"1"}},{"base_weights":[7.3001613E-3,-1.858218E1,3.6027665E0,2.9237342E0,-2.18007E1,-5.1166635E0,4.7621183E0,6.2950894E-2,-8.652198E-2,-2.8555256E-1,-1.7240731E-1,3.6462536E-3,-1.9550624E-1,3.7298817E-2,1.4120407E-1],"categories":[],"categories_nodes":[],"categories_segments":[],"categories_sizes":[],"default_left":[0,0,0,0,0,0,0,0,0,0,0,0,0,0,0],"id":43,"left_children":[1,3,5,7,9,11,13,-1,-1,-1,-1,-1,-1,-1,-1],"loss_changes":[1.9383086E4,3.3169453E3,2.4808264E3,3.2765244E2,7.7050977E2,2.3015137E3,2.0242261E3,0E0,0E0,0E0,0E0,0E0,0E0,0E0,0E0],"parents":[2147483647,0,0,1,1,2,2,3,3,4,4,5,5,6,6],"right_children":[2,4,6,8,10,12,14,-1,-1,-1,-1,-1,-1,-1,-1],"split_conditions":[4E0,1.7873333E1,6E0,1.3888889E-2,2E0,2.9330128E1,6.6071427E-1,6.2950894E-2,-8.652198E-2,-2.8555256E-1,-1.7240731E-1,3.6462536E-3,-1.9550624E-1,3.7298817E-2,1.4120407E-1],"split_indices":[0,1,0,11,0,1,8,0,0,0,0,0,0,0,0],"split_type":[0,0,0,0,0,0,0,0,0,0,0,0,0,0,0],"sum_hessian":[2.88E2,4.6E1,2.42E2,6E0,4E1,2.8E1,2.14E2,5E0,1E0,1.4E1,2.6E1,2.1E1,7E0,1.94E2,2E1],"tree_param":{"num_deleted":"0","num_feature":"13","num_nodes":"15","size_leaf_vector":"1"}},{"base_weights":[2.4103369E-1,1.3500363E0,-6.3647633E0,2.3045187E-1,1.16032915E1,-1.4237614E1,-4.3251286E0,9.110088E-3,-6.654696E-2,4.050291E-2,2.3741592E-1,3.541709E-2,-1.7283475E-1,-1.6223083E-1,-2.6503883E-2],"categories":[],"categories_nodes":[],"categories_segments":[],"categories_sizes":[],"default_left":[0,0,0,0,0,0,0,0,0,0,0,0,0,0,0],"id":44,"left_children":[1,3,5,7,9,11,13,-1,-1,-1,-1,-1,-1,-1,-1],"loss_changes":[2.089133E3,2.7982957E3,5.967877E2,1.04161E3,2.1041736E3,4.9444006E2,6.344859E2,0E0,0E0,0E0,0E0,0E0,0E0,0E0,0E0],"parents":[2147483647,0,0,1,1,2,2,3,3,4,4,5,5,6,6],"right_children":[2,4,6,8,10,12,14,-1,-1,-1,-1,-1,-1,-1,-1],"split_conditions":[4.8214287E-1,2.8787878E-1,1.3264285E2,7.0775116E1,2.2398039E1,5.492958E-1,5.138889E-1,9.110088E-3,-6.654696E-2,4.050291E-2,2.3741592E-1,3.541709E-2,-1.7283475E-1,-1.6223083E-1,-2.6503883E-2],"split_indices":[7,7,6,3,1,7,7,0,0,0,0,0,0,0,0],"split_type":[0,0,0,0,0,0,0,0,0,0,0,0,0,0,0],"sum_hessian":[2.83E2,2.43E2,4E1,2.2E2,2.3E1,7E0,3.3E1,2.01E2,1.9E1,1.5E1,8E0,1E0,6E0,3E0,3E1],"tree_param":{"num_deleted":"0","num_feature":"13","num_nodes":"15","size_leaf_vector":"1"}},{"base_weights":[-3.9171523E-1,-1.43087435E1,4.877775E0,-2.1398962E1,-8.448817E0,6.1008153E0,-9.653971E0,-2.4303116E-2,-2.3049738E-1,-4.63928E-2,-2.596421E-1,-3.7242873E-3,8.785248E-2,-1.3409479E-1,1.2341561E-1],"categories":[],"categories_nodes":[],"categories_segments":[],"categories_sizes":[],"default_left":[0,0,0,0,0,0,0,0,0,0,0,0,0,0,0],"id":45,"left_children":[1,3,5,7,9,11,13,-1,-1,-1,-1,-1,-1,-1,-1],"loss_changes":[2.1630477E4,3.1846055E3,3.8622993E3,1.07125E3,2.94892E3,3.443916E3,1.5697687E3,0E0,0E0,0E0,0E0,0E0,0E0,0E0,0E0],"parents":[2147483647,0,0,1,1,2,2,3,3,4,4,5,5,6,6],"right_children":[2,4,6,8,10,12,14,-1,-1,-1,-1,-1,-1,-1,-1],"split_conditions":[6E0,3E0,2.996012E1,1.7449549E1,2.9330128E1,3.392857E-1,1.9E1,-2.4303116E-2,-2.3049738E-1,-4.63928E-2,-2.596421E-1,-3.7242873E-3,8.785248E-2,-1.3409479E-1,1.2341561E-1],"split_indices":[0,0,1,1,1,9,0,0,0,0,0,0,0,0,0],"split_type":[0,0,0,0,0,0,0,0,0,0,0,0,0,0,0],"sum_hessian":[2.93E2,8E1,2.13E2,3.5E1,4.5E1,1.97E2,1.6E1,3E0,3.2E1,3.8E1,7E0,5.8E1,1.39E2,1.4E1,2E0],"tree_param":{"num_deleted":"0","num_feature":"13","num_nodes":"15","size_leaf_vector":"1"}},{"base_weights":[3.9398178E-1,1.0408718E-1,2.2472424E1,9.12947E-1,-4.8643565E0,6.453556E-2,2.566086E-1,-1.0940964E-2,7.3337376E-2,-1.8142963E-2,-1.6185217E-1],"categories":[],"categories_nodes":[],"categories_segments":[],"categories_sizes":[],"default_left":[0,0,0,0,0,0,0,0,0,0,0],"id":46,"left_children":[1,3,5,7,9,-1,-1,-1,-1,-1,-1],"loss_changes":[1.9753912E3,1.2341858E3,3.86969E1,3.4101406E3,1.4553955E3,0E0,0E0,0E0,0E0,0E0,0E0],"parents":[2147483647,0,0,1,1,2,2,3,3,4,4],"right_children":[2,4,6,8,10,-1,-1,-1,-1,-1,-1],"split_conditions":[9.8039216E-1,4.8214287E-1,2.2674026E1,2.8571429E-2,2.4860624E1,6.453556E-2,2.566086E-1,-1.0940964E-2,7.3337376E-2,-1.8142963E-2,-1.6185217E-1],"split_indices":[9,7,1,7,1,0,0,0,0,0,0],"split_type":[0,0,0,0,0,0,0,0,0,0,0],"sum_hessian":[3.08E2,3.05E2,3E0,2.63E2,4.2E1,1E0,2E0,2.01E2,6.2E1,3.4E1,8E0],"tree_param":{"num_deleted":"0","num_feature":"13","num_nodes":"11","size_leaf_vector":"1"}},{"base_weights":[4.413222E-2,-1.894999E1,4.1631618E0,4.13066E0,-2.1389456E1,-2.4660025E0,5.8831286E0,-1.7065192E-2,1.0536678E-1,-2.4253404E-1,-1.5590936E-1,9.042943E-3,-1.3775682E-1,1.20351516E-1,4.098792E-2],"categories":[],"categories_nodes":[],"categories_segments":[],"categories_sizes":[],"default_left":[0,0,0,0,0,0,0,0,0,0,0,0,0,0,0],"id":47,"left_children":[1,3,5,7,9,11,13,-1,-1,-1,-1,-1,-1,-1,-1],"loss_changes":[2.370657E4,3.128795E3,2.8535913E3,2.4233951E2,4.355957E2,1.99454E3,2.1241719E3,0E0,0E0,0E0,0E0,0E0,0E0,0E0,0E0],"parents":[2147483647,0,0,1,1,2,2,3,3,4,4,5,5,6,6],"right_children":[2,4,6,8,10,12,14,-1,-1,-1,-1,-1,-1,-1,-1],"split_conditions":[4E0,1.7873333E1,7E0,2E0,1.8297468E0,2.9330128E1,1.3264285E2,-1.7065192E-2,1.0536678E-1,-2.4253404E-1,-1.5590936E-1,9.042943E-3,-1.3775682E-1,1.20351516E-1,4.098792E-2],"split_indices":[0,1,0,0,5,1,6,0,0,0,0,0,0,0,0],"split_type":[0,0,0,0,0,0,0,0,0,0,0,0,0,0,0],"sum_hessian":[3.01E2,5.3E1,2.48E2,5E0,4.8E1,5.1E1,1.97E2,3E0,2E0,3E1,1.8E1,4E1,1.1E1,4.3E1,1.54E2],"tree_param":{"num_deleted":"0","num_feature":"13","num_nodes":"15","size_leaf_vector":"1"}},{"base_weights":[1.6546424E-1,3.0647023E0,-2.8729582E0,5.2779007E0,-5.886953E0,-2.177274E1,-8.7691426E-1,3.9001517E-2,1.6741745E-1,-1.6028376E-1,-1.662615E-2,-2.6993296E-1,6.367064E-2,8.0429454E-5,-1.9757341E-1],"categories":[],"categories_nodes":[],"categories_segments":[],"categories_sizes":[],"default_left":[0,0,0,0,0,0,0,0,0,0,0,0,0,0,0],"id":48,"left_children":[1,3,5,7,9,11,13,-1,-1,-1,-1,-1,-1,-1,-1],"loss_changes":[2.6515378E3,3.082086E3,5.526452E3,1.893198E3,1.3014156E3,2.2285435E3,2.2390803E3,0E0,0E0,0E0,0E0,0E0,0E0,0E0,0E0],"parents":[2147483647,0,0,1,1,2,2,3,3,4,4,5,5,6,6],"right_children":[2,4,6,8,10,12,14,-1,-1,-1,-1,-1,-1,-1,-1],"split_conditions":[3.409091E-1,4.8214287E-1,3.6619717E-1,1.969697E-1,4.2320515E1,3.6932076E1,2.361111E-1,3.9001517E-2,1.6741745E-1,-1.6028376E-1,-1.662615E-2,-2.6993296E-1,6.367064E-2,8.0429454E-5,-1.9757341E-1],"split_indices":[8,7,8,7,3,2,10,0,0,0,0,0,0,0,0],"split_type":[0,0,0,0,0,0,0,0,0,0,0,0,0,0,0],"sum_hessian":[2.99E2,1.53E2,1.46E2,1.23E2,3E1,1.3E1,1.33E2,1.11E2,1.2E1,8E0,2.2E1,1.1E1,2E0,1.28E2,5E0],"tree_param":{"num_deleted":"0","num_feature":"13","num_nodes":"15","size_leaf_vector":"1"}},{"base_weights":[1.9045536E-1,-7.4003673E0,5.512753E-1,1.23455515E1,-1.974205E-1,-2.9103324E0,1.8367513E0,1.3469257E-2,1.7508133E-1,-1.2449957E-1,-3.3089598E-3,8.5404426E-2,-8.133254E-3],"categories":[],"categories_nodes":[],"categories_segments":[],"categories_sizes":[],"default_left":[0,0,0,0,0,0,0,0,0,0,0,0,0],"id":49,"left_children":[1,3,5,7,-1,9,11,-1,-1,-1,-1,-1,-1],"loss_changes":[8.4492816E2,3.6554968E3,1.313591E3,3.171057E2,0E0,1.964429E3,3.8264849E3,0E0,0E0,0E0,0E0,0E0,0E0],"parents":[2147483647,0,0,1,1,2,2,3,3,5,5,6,6],"right_children":[2,4,6,8,-1,10,12,-1,-1,-1,-1,-1,-1],"split_conditions":[1.2150633E2,3.4E-1,3.1578946E-1,3.2307693E-1,-1.974205E-1,1.3092896E0,5.535714E-1,1.3469257E-2,1.7508133E-1,-1.2449957E-1,-3.3089598E-3,8.5404426E-2,-8.133254E-3],"split_indices":[6,9,9,9,0,5,9,0,0,0,0,0,0],"split_type":[0,0,0,0,0,0,0,0,0,0,0,0,0],"sum_hessian":[3.06E2,1.3E1,2.93E2,5E0,8E0,7.9E1,2.14E2,2E0,3E0,1.6E1,6.3E1,6E1,1.54E2],"tree_param":{"num_deleted":"0","num_feature":"13","num_nodes":"13","size_leaf_vector":"1"}},{"base_weights":[7.4959224E-1,-1.5136797E1,6.1132393E0,-2.0673214E1,-6.611778E0,7.531665E-1,7.916919E0,-2.2237195E-1,-3.7139278E-2,-8.9617334E-2,1.14908576E-1,-1.12529285E-1,8.621366E-2,6.1698582E-2,1.5631266E-1],"categories":[],"categories_nodes":[],"categories_segments":[],"categories_sizes":[],"default_left":[0,0,0,0,0,0,0,0,0,0,0,0,0,0,0],"id":50,"left_children":[1,3,5,7,9,11,13,-1,-1,-1,-1,-1,-1,-1,-1],"loss_changes":[2.5314395E4,3.403166E3,2.1403018E3,1.1109941E3,1.4217302E3,5.4815977E3,2.1408105E3,0E0,0E0,0E0,0E0,0E0,0E0,0E0,0E0],"parents":[2147483647,0,0,1,1,2,2,3,3,4,4,5,5,6,6],"right_children":[2,4,6,8,10,12,14,-1,-1,-1,-1,-1,-1,-1,-1],"split_conditions":[6E0,4E0,2.820513E-1,6.5789476E-2,4.6775955E1,1.1E1,5.4E-1,-2.2237195E-1,-3.7139278E-2,-8.9617334E-2,1.14908576E-1,-1.12529285E-1,8.621366E-2,6.1698582E-2,1.5631266E-1],"split_indices":[0,0,9,10,2,0,8,0,0,0,0,0,0,0,0],"split_type":[0,0,0,0,0,0,0,0,0,0,0,0,0,0,0],"sum_hessian":[2.95E2,7.4E1,2.21E2,4.4E1,3E1,5.6E1,1.65E2,4E1,4E0,2.7E1,3E0,2.2E1,3.4E1,1.36E2,2.9E1],"tree_param":{"num_deleted":"0","num_feature":"13","num_nodes":"15","size_leaf_vector":"1"}},{"base_weights":[-9.31762E-1,-1.816024E1,3.0850391E0,1.4749492E0,-2.0040445E1,-4.0423965E0,4.7200365E0,-5.6868456E-2,1.0532359E-1,-2.5252196E-1,-1.6638626E-1,4.2840624E-3,-1.0653496E-1,2.7462943E-2,1.17900066E-1],"categories":[],"categories_nodes":[],"categories_segments":[],"categories_sizes":[],"default_left":[0,0,0,0,0,0,0,0,0,0,0,0,0,0,0],"id":51,"left_children":[1,3,5,7,9,11,13,-1,-1,-1,-1,-1,-1,-1,-1],"loss_changes":[2.1232256E4,2.1708145E3,2.9207612E3,4.490998E2,5.1949805E2,1.3937395E3,2.8003438E3,0E0,0E0,0E0,0E0,0E0,0E0,0E0,0E0],"parents":[2147483647,0,0,1,1,2,2,3,3,4,4,5,5,6,6],"right_children":[2,4,6,8,10,12,14,-1,-1,-1,-1,-1,-1,-1,-1],"split_conditions":[4E0,1.7873333E1,7E0,3E0,2E0,3.409091E-1,5.4E-1,-5.6868456E-2,1.0532359E-1,-2.5252196E-1,-1.6638626E-1,4.2840624E-3,-1.0653496E-1,2.7462943E-2,1.17900066E-1],"split_indices":[0,1,0,0,0,8,8,0,0,0,0,0,0,0,0],"split_type":[0,0,0,0,0,0,0,0,0,0,0,0,0,0,0],"sum_hessian":[3.05E2,5.7E1,2.48E2,5E0,5.2E1,4.6E1,2.02E2,3E0,2E0,1.8E1,3.4E1,2.8E1,1.8E1,1.59E2,4.3E1],"tree_param":{"num_deleted":"0","num_feature":"13","num_nodes":"15","size_leaf_vector":"1"}},{"base_weights":[4.5266905E-1,-1.8200943E1,4.181581E0,-2.100122E1,2.0009413E0,1.3266699E0,1.0121745E1,-2.2354579E-1,-8.704186E-2,1.7319866E-1,-3.4388572E-2,-7.786795E-2,3.8331736E-2,1.6990417E-1,4.2492423E-2],"categories":[],"categories_nodes":[],"categories_segments":[],"categories_sizes":[],"default_left":[0,0,0,0,0,0,0,0,0,0,0,0,0,0,0],"id":52,"left_children":[1,3,5,7,9,11,13,-1,-1,-1,-1,-1,-1,-1,-1],"loss_changes":[2.0873854E4,2.8705664E3,4.2262314E3,5.3768164E2,6.4288354E2,3.913147E3,3.195043E3,0E0,0E0,0E0,0E0,0E0,0E0,0E0,0E0],"parents":[2147483647,0,0,1,1,2,2,3,3,4,4,5,5,6,6],"right_children":[2,4,6,8,10,12,14,-1,-1,-1,-1,-1,-1,-1,-1],"split_conditions":[4E0,6.5789476E-2,1.5E1,2.300926E0,2.638889E-1,2.6923078E-1,4.9019608E-1,-2.2354579E-1,-8.704186E-2,1.7319866E-1,-3.4388572E-2,-7.786795E-2,3.8331736E-2,1.6990417E-1,4.2492423E-2],"split_indices":[0,10,0,5,10,9,9,0,0,0,0,0,0,0,0],"split_type":[0,0,0,0,0,0,0,0,0,0,0,0,0,0,0],"sum_hessian":[2.98E2,4.9E1,2.49E2,4.3E1,6E0,1.69E2,8E1,3.8E1,5E0,1E0,5E0,3.6E1,1.33E2,3.6E1,4.4E1],"tree_param":{"num_deleted":"0","num_feature":"13","num_nodes":"15","size_leaf_vector":"1"}},{"base_weights":[2.3979414E-2,-1.0667523E1,5.476526E0,-1.9718071E1,-6.4381566E0,8.093476E0,1.1910921E0,-2.2924009E-1,-7.234755E-2,3.5163295E-2,-8.72996E-2,-7.277959E-2,9.505689E-2,6.0667302E-2,-4.833009E-2],"categories":[],"categories_nodes":[],"categories_segments":[],"categories_sizes":[],"default_left":[0,0,0,0,0,0,0,0,0,0,0,0,0,0,0],"id":53,"left_children":[1,3,5,7,9,11,13,-1,-1,-1,-1,-1,-1,-1,-1],"loss_changes":[1.760549E4,3.777417E3,2.2333145E3,1.1148145E3,1.6504724E3,2.7609424E3,2.2909133E3,0E0,0E0,0E0,0E0,0E0,0E0,0E0,0E0],"parents":[2147483647,0,0,1,1,2,2,3,3,4,4,5,5,6,6],"right_children":[2,4,6,8,10,12,14,-1,-1,-1,-1,-1,-1,-1,-1],"split_conditions":[7E0,3E0,5.172414E-2,2.821531E0,1.5686275E-1,2.4561404E-1,1.7722973E0,-2.2924009E-1,-7.234755E-2,3.5163295E-2,-8.72996E-2,-7.277959E-2,9.505689E-2,6.0667302E-2,-4.833009E-2],"split_indices":[0,0,7,5,8,9,5,0,0,0,0,0,0,0,0],"split_type":[0,0,0,0,0,0,0,0,0,0,0,0,0,0,0],"sum_hessian":[3E2,1.01E2,1.99E2,3.1E1,7E1,1.23E2,7.6E1,2.4E1,7E0,1.3E1,5.7E1,1E1,1.13E2,4.2E1,3.4E1],"tree_param":{"num_deleted":"0","num_feature":"13","num_nodes":"15","size_leaf_vector":"1"}},{"base_weights":[-4.5768186E-1,2.7299683E0,-3.286106E0,2.158594E0,2.2045578E1,-9.370398E0,1.2633802E0,3.324589E-2,-1.3331804E-1,6.2323224E-2,2.5239223E-1,3.0087788E-2,-1.2029325E-1,-2.3544235E-2,8.233394E-2],"categories":[],"categories_nodes":[],"categories_segments":[],"categories_sizes":[],"default_left":[0,0,0,0,0,0,0,0,0,0,0,0,0,0,0],"id":54,"left_children":[1,3,5,7,9,11,13,-1,-1,-1,-1,-1,-1,-1,-1],"loss_changes":[2.7408271E3,1.530624E3,4.468383E3,2.5729648E3,4.470874E1,2.307352E3,2.3644863E3,0E0,0E0,0E0,0E0,0E0,0E0,0E0,0E0],"parents":[2147483647,0,0,1,1,2,2,3,3,4,4,5,5,6,6],"right_children":[2,4,6,8,10,12,14,-1,-1,-1,-1,-1,-1,-1,-1],"split_conditions":[3.2E-1,9.8039216E-1,4.5070422E-1,9.1071427E-1,2.2674026E1,9.397815E2,2.9330128E1,3.324589E-2,-1.3331804E-1,6.2323224E-2,2.5239223E-1,3.0087788E-2,-1.2029325E-1,-2.3544235E-2,8.233394E-2],"split_indices":[8,9,8,9,1,4,1,0,0,0,0,0,0,0,0],"split_type":[0,0,0,0,0,0,0,0,0,0,0,0,0,0,0],"sum_hessian":[3.02E2,1.42E2,1.6E2,1.39E2,3E0,6.8E1,9.2E1,1.3E2,9E0,1E0,2E0,1.2E1,5.6E1,6.1E1,3.1E1],"tree_param":{"num_deleted":"0","num_feature":"13","num_nodes":"15","size_leaf_vector":"1"}},{"base_weights":[-9.205691E-1,-1.869296E1,2.7827473E0,1.548284E0,-2.0926754E1,-2.3154778E0,4.340802E0,-5.5025637E-2,1.043332E-1,-2.2728692E-1,-1.2166906E-1,-8.624326E-2,1.01025485E-1,-6.432482E-2,5.8815174E-2],"categories":[],"categories_nodes":[],"categories_segments":[],"categories_sizes":[],"default_left":[0,0,0,0,0,0,0,0,0,0,0,0,0,0,0],"id":55,"left_children":[1,3,5,7,9,11,13,-1,-1,-1,-1,-1,-1,-1,-1],"loss_changes":[1.9467973E4,2.3383535E3,1.956163E3,4.3329227E2,4.495586E2,4.631047E3,3.1583633E3,0E0,0E0,0E0,0E0,0E0,0E0,0E0,0E0],"parents":[2147483647,0,0,1,1,2,2,3,3,4,4,5,5,6,6],"right_children":[2,4,6,8,10,12,14,-1,-1,-1,-1,-1,-1,-1,-1],"split_conditions":[4E0,1.7873333E1,3.0985916E-1,3E0,2.8571429E-2,1.5E1,6E0,-5.5025637E-2,1.043332E-1,-2.2728692E-1,-1.2166906E-1,-8.624326E-2,1.01025485E-1,-6.432482E-2,5.8815174E-2],"split_indices":[0,1,9,0,7,0,0,0,0,0,0,0,0,0,0],"split_type":[0,0,0,0,0,0,0,0,0,0,0,0,0,0,0],"sum_hessian":[2.94E2,5E1,2.44E2,5E0,4.5E1,5.7E1,1.87E2,3E0,2E0,3.6E1,9E0,3.8E1,1.9E1,2.3E1,1.64E2],"tree_param":{"num_deleted":"0","num_feature":"13","num_nodes":"15","size_leaf_vector":"1"}},{"base_weights":[9.236877E-1,-1.7808062E1,4.950673E0,8.564104E0,-2.0234716E1,7.6306564E-1,8.571726E0,1.558993E-1,-1.3164248E-2,-2.3936887E-1,-1.3519047E-1,-1.7135866E-2,6.1898988E-2,9.378608E-2,-1.2991919E-1],"categories":[],"categories_nodes":[],"categories_segments":[],"categories_sizes":[],"default_left":[0,0,0,0,0,0,0,0,0,0,0,0,0,0,0],"id":56,"left_children":[1,3,5,7,9,11,13,-1,-1,-1,-1,-1,-1,-1,-1],"loss_changes":[2.1737285E4,3.4370938E3,3.5872207E3,3.6761743E2,8.449375E2,1.5024891E3,2.3315596E3,0E0,0E0,0E0,0E0,0E0,0E0,0E0,0E0],"parents":[2147483647,0,0,1,1,2,2,3,3,4,4,5,5,6,6],"right_children":[2,4,6,8,10,12,14,-1,-1,-1,-1,-1,-1,-1,-1],"split_conditions":[4E0,1.7873333E1,1.2E1,1.7449549E1,1.8297468E0,7.0422536E-1,7.5714284E-1,1.558993E-1,-1.3164248E-2,-2.3936887E-1,-1.3519047E-1,-1.7135866E-2,6.1898988E-2,9.378608E-2,-1.2991919E-1],"split_indices":[0,1,0,1,5,9,7,0,0,0,0,0,0,0,0],"split_type":[0,0,0,0,0,0,0,0,0,0,0,0,0,0,0],"sum_hessian":[2.86E2,5E1,2.36E2,4E0,4.6E1,1.1E2,1.26E2,2E0,2E0,2.8E1,1.8E1,7.6E1,3.4E1,1.22E2,4E0],"tree_param":{"num_deleted":"0","num_feature":"13","num_nodes":"15","size_leaf_vector":"1"}},{"base_weights":[1.540393E-1,-1.269167E1,6.0914235E0,-2.2439726E1,-9.574605E0,4.3078822E-1,8.023345E0,3.8621623E-2,-2.512858E-1,-1.2824818E-1,-1.5273809E-2,-6.325173E-2,9.420787E-2,1.6889994E-1,5.6374498E-2],"categories":[],"categories_nodes":[],"categories_segments":[],"categories_sizes":[],"default_left":[0,0,0,0,0,0,0,0,0,0,0,0,0,0,0],"id":57,"left_children":[1,3,5,7,9,11,13,-1,-1,-1,-1,-1,-1,-1,-1],"loss_changes":[2.3644715E4,2.7629111E3,2.3149546E3,1.7236543E3,1.9682065E3,3.4000728E3,3.2472578E3,0E0,0E0,0E0,0E0,0E0,0E0,0E0,0E0],"parents":[2147483647,0,0,1,1,2,2,3,3,4,4,5,5,6,6],"right_children":[2,4,6,8,10,12,14,-1,-1,-1,-1,-1,-1,-1,-1],"split_conditions":[7E0,2E0,3.1578946E-1,1.7873333E1,1.2987013E-2,1.5E1,4.4230768E-1,3.8621623E-2,-2.512858E-1,-1.2824818E-1,-1.5273809E-2,-6.325173E-2,9.420787E-2,1.6889994E-1,5.6374498E-2],"split_indices":[0,0,9,1,7,0,9,0,0,0,0,0,0,0,0],"split_type":[0,0,0,0,0,0,0,0,0,0,0,0,0,0,0],"sum_hessian":[3.08E2,9.7E1,2.11E2,2.2E1,7.5E1,5.4E1,1.57E2,2E0,2E1,5.3E1,2.2E1,3.1E1,2.3E1,3.2E1,1.25E2],"tree_param":{"num_deleted":"0","num_feature":"13","num_nodes":"15","size_leaf_vector":"1"}},{"base_weights":[1.7213723E-2,-3.4142604E-1,1.2522624E1,7.068907E-2,-1.9104446E1,1.7042225E1,-9.557287E-2,-6.793844E-3,5.3853072E-2,-2.375315E-2,-2.6875183E-1,8.810638E-2,2.1013252E-1],"categories":[],"categories_nodes":[],"categories_segments":[],"categories_sizes":[],"default_left":[0,0,0,0,0,0,0,0,0,0,0,0,0],"id":58,"left_children":[1,3,5,7,9,11,-1,-1,-1,-1,-1,-1,-1],"loss_changes":[1.2869678E3,2.1587249E3,9.612162E2,1.0959198E3,7.161487E2,4.367505E1,0E0,0E0,0E0,0E0,0E0,0E0,0E0],"parents":[2147483647,0,0,1,1,2,2,3,3,4,4,5,5],"right_children":[2,4,6,8,10,12,-1,-1,-1,-1,-1,-1,-1],"split_conditions":[3.0769232E-1,2.987013E-1,3.3766234E-1,4.5639473E1,1.7449549E1,3.1578946E-1,-9.557287E-2,-6.793844E-3,5.3853072E-2,-2.375315E-2,-2.6875183E-1,8.810638E-2,2.1013252E-1],"split_indices":[10,10,10,2,1,10,0,0,0,0,0,0,0],"split_type":[0,0,0,0,0,0,0,0,0,0,0,0,0],"sum_hessian":[2.85E2,2.78E2,7E0,2.73E2,5E0,6E0,1E0,2.4E2,3.3E1,2E0,3E0,3E0,3E0],"tree_param":{"num_deleted":"0","num_feature":"13","num_nodes":"13","size_leaf_vector":"1"}},{"base_weights":[-1.284168E-1,2.792421E0,-3.0112286E0,4.4463444E0,-4.5469136E0,-2.115361E0,-2.520467E1,1.8957303E-1,2.6252938E-2,5.245203E-3,-1.5875047E-1,-7.297885E-3,-1.122365E-1,-3.4262756E-1,-4.7256663E-2],"categories":[],"categories_nodes":[],"categories_segments":[],"categories_sizes":[],"default_left":[0,0,0,0,0,0,0,0,0,0,0,0,0,0,0],"id":59,"left_children":[1,3,5,7,9,11,13,-1,-1,-1,-1,-1,-1,-1,-1],"loss_changes":[2.6270989E3,1.9017153E3,3.0682173E3,3.3062312E3,1.6743733E3,1.9100786E3,9.5108887E2,0E0,0E0,0E0,0E0,0E0,0E0,0E0,0E0],"parents":[2147483647,0,0,1,1,2,2,3,3,4,4,5,5,6,6],"right_children":[2,4,6,8,10,12,14,-1,-1,-1,-1,-1,-1,-1,-1],"split_conditions":[3.207547E-1,4.8214287E-1,6.363636E-1,6.4E-1,2.4860624E1,6.2068963E-1,1.805E1,1.8957303E-1,2.6252938E-2,5.245203E-3,-1.5875047E-1,-7.297885E-3,-1.122365E-1,-3.4262756E-1,-4.7256663E-2],"split_indices":[8,7,7,9,1,9,1,0,0,0,0,0,0,0,0],"split_type":[0,0,0,0,0,0,0,0,0,0,0,0,0,0,0],"sum_hessian":[3.1E2,1.54E2,1.56E2,1.26E2,2.8E1,1.51E2,5E0,1.3E1,1.13E2,2E1,8E0,1.32E2,1.9E1,3E0,2E0],"tree_param":{"num_deleted":"0","num_feature":"13","num_nodes":"15","size_leaf_vector":"1"}},{"base_weights":[4.8933983E-2,-1.6270817E1,3.6535017E0,2.9786134E0,-1.8688677E1,-3.2831845E0,5.1583667E0,8.456149E-2,-7.143484E-2,-2.1464236E-1,-1.1622572E-1,-1.2433234E-1,-6.5030437E-3,8.01563E-2,-8.080625E-5],"categories":[],"categories_nodes":[],"categories_segments":[],"categories_sizes":[],"default_left":[0,0,0,0,0,0,0,0,0,0,0,0,0,0,0],"id":60,"left_children":[1,3,5,7,9,11,13,-1,-1,-1,-1,-1,-1,-1,-1],"loss_changes":[1.7883617E4,2.615501E3,2.6161914E3,4.485154E2,7.1153906E2,1.0760089E3,3.0262544E3,0E0,0E0,0E0,0E0,0E0,0E0,0E0,0E0],"parents":[2147483647,0,0,1,1,2,2,3,3,4,4,5,5,6,6],"right_children":[2,4,6,8,10,12,14,-1,-1,-1,-1,-1,-1,-1,-1],"split_conditions":[4E0,1.7873333E1,7E0,3.7878788E-1,3E0,2.6153848E-1,5.172414E-2,8.456149E-2,-7.143484E-2,-2.1464236E-1,-1.1622572E-1,-1.2433234E-1,-6.5030437E-3,8.01563E-2,-8.080625E-5],"split_indices":[0,1,0,7,0,9,7,0,0,0,0,0,0,0,0],"split_type":[0,0,0,0,0,0,0,0,0,0,0,0,0,0,0],"sum_hessian":[3.02E2,5.4E1,2.48E2,6E0,4.8E1,4.4E1,2.04E2,4E0,2E0,3.3E1,1.5E1,9E0,3.5E1,1.31E2,7.3E1],"tree_param":{"num_deleted":"0","num_feature":"13","num_nodes":"15","size_leaf_vector":"1"}},{"base_weights":[1.3281436E-1,8.306998E-1,-1.2699132E1,2.6460317E-1,9.496148E0,-2.0238556E1,3.239667E0,2.4832759E-2,-3.1263206E-2,-9.462819E-2,1.3918795E-1,-8.576062E-2,-2.3539981E-1,-1.3481781E-1,9.280312E-2],"categories":[],"categories_nodes":[],"categories_segments":[],"categories_sizes":[],"default_left":[0,0,0,0,0,0,0,0,0,0,0,0,0,0,0],"id":61,"left_children":[1,3,5,7,9,11,13,-1,-1,-1,-1,-1,-1,-1,-1],"loss_changes":[2.7777146E3,1.4396987E3,1.9882759E3,2.0917314E3,1.64099E3,2.2165137E2,7.311652E2,0E0,0E0,0E0,0E0,0E0,0E0,0E0,0E0],"parents":[2147483647,0,0,1,1,2,2,3,3,4,4,5,5,6,6],"right_children":[2,4,6,8,10,12,14,-1,-1,-1,-1,-1,-1,-1,-1],"split_conditions":[6.883117E-1,6.415094E-1,1.49E0,3.409091E-1,2.2674026E1,7.0422536E-1,7.017544E-1,2.4832759E-2,-3.1263206E-2,-9.462819E-2,1.3918795E-1,-8.576062E-2,-2.3539981E-1,-1.3481781E-1,9.280312E-2],"split_indices":[8,8,5,8,1,8,8,0,0,0,0,0,0,0,0],"split_type":[0,0,0,0,0,0,0,0,0,0,0,0,0,0,0],"sum_hessian":[3.08E2,2.93E2,1.5E1,2.76E2,1.7E1,1E1,5E0,1.67E2,1.09E2,3E0,1.4E1,3E0,7E0,1E0,4E0],"tree_param":{"num_deleted":"0","num_feature":"13","num_nodes":"15","size_leaf_vector":"1"}},{"base_weights":[2.9998147E-1,-1.4014516E1,4.326572E0,-1.605114E1,2.5028174E0,5.35427E0,-8.925293E0,-1.7309645E-1,-2.2591474E-2,-7.316052E-2,9.857349E-2,1.4178737E-2,9.169317E-2,1.9033821E-1,-1.1862351E-1],"categories":[],"categories_nodes":[],"categories_segments":[],"categories_sizes":[],"default_left":[0,0,0,0,0,0,0,0,0,0,0,0,0,0,0],"id":62,"left_children":[1,3,5,7,9,11,13,-1,-1,-1,-1,-1,-1,-1,-1],"loss_changes":[1.7064027E4,2.226745E3,3.1937583E3,9.6761914E2,6.498225E2,3.215769E3,1.6217843E3,0E0,0E0,0E0,0E0,0E0,0E0,0E0,0E0],"parents":[2147483647,0,0,1,1,2,2,3,3,4,4,5,5,6,6],"right_children":[2,4,6,8,10,12,14,-1,-1,-1,-1,-1,-1,-1,-1],"split_conditions":[5E0,6.5789476E-2,8.695652E-1,1.01836664E3,3E0,1.2E1,1.2456209E2,-1.7309645E-1,-2.2591474E-2,-7.316052E-2,9.857349E-2,1.4178737E-2,9.169317E-2,1.9033821E-1,-1.1862351E-1],"split_indices":[0,10,9,4,0,0,6,0,0,0,0,0,0,0,0],"split_type":[0,0,0,0,0,0,0,0,0,0,0,0,0,0,0],"sum_hessian":[2.94E2,6.4E1,2.3E2,5.7E1,7E0,2.14E2,1.6E1,5.2E1,5E0,3E0,4E0,1.06E2,1.08E2,1E0,1.5E1],"tree_param":{"num_deleted":"0","num_feature":"13","num_nodes":"15","size_leaf_vector":"1"}},{"base_weights":[3.1934407E-1,2.7208066E0,-2.640064E0,4.572483E0,-6.120589E0,-1.0499755E1,6.970698E-1,2.689813E-2,1.545161E-1,-1.118435E-1,-6.4878846E-3,-1.3118616E-2,-1.9622055E-1,1.1289236E-1,-9.703426E-3],"categories":[],"categories_nodes":[],"categories_segments":[],"categories_sizes":[],"default_left":[0,0,0,0,0,0,0,0,0,0,0,0,0,0,0],"id":63,"left_children":[1,3,5,7,9,11,13,-1,-1,-1,-1,-1,-1,-1,-1],"loss_changes":[2.1250415E3,2.729268E3,3.5219834E3,2.7644458E3,7.962726E2,3.3268477E3,1.6887979E3,0E0,0E0,0E0,0E0,0E0,0E0,0E0,0E0],"parents":[2147483647,0,0,1,1,2,2,3,3,4,4,5,5,6,6],"right_children":[2,4,6,8,10,12,14,-1,-1,-1,-1,-1,-1,-1,-1],"split_conditions":[3.409091E-1,4.6153846E-1,4.2105263E-1,1.1363637E-1,1.8694805E0,1.5946667E0,1.8530247E1,2.689813E-2,1.545161E-1,-1.118435E-1,-6.4878846E-3,-1.3118616E-2,-1.9622055E-1,1.1289236E-1,-9.703426E-3],"split_indices":[8,7,8,7,5,5,1,0,0,0,0,0,0,0,0],"split_type":[0,0,0,0,0,0,0,0,0,0,0,0,0,0,0],"sum_hessian":[2.97E2,1.64E2,1.33E2,1.36E2,2.8E1,3.9E1,9.4E1,1.17E2,1.9E1,1.4E1,1.4E1,2E1,1.9E1,1.2E1,8.2E1],"tree_param":{"num_deleted":"0","num_feature":"13","num_nodes":"15","size_leaf_vector":"1"}},{"base_weights":[-5.758726E-1,-1.7459194E1,2.8568974E0,6.2808523E0,-2.0176174E1,-4.1557636E0,4.6659045E0,1.04744315E-1,-1.4042047E-2,-2.4796684E-1,-1.5303077E-1,2.6133037E-3,-1.8901186E-1,5.4161992E-2,-4.948812E-2],"categories":[],"categories_nodes":[],"categories_segments":[],"categories_sizes":[],"default_left":[0,0,0,0,0,0,0,0,0,0,0,0,0,0,0],"id":64,"left_children":[1,3,5,7,9,11,13,-1,-1,-1,-1,-1,-1,-1,-1],"loss_changes":[1.7494803E4,3.416288E3,3.203565E3,2.0807565E2,6.562793E2,3.3917988E3,1.4695781E3,0E0,0E0,0E0,0E0,0E0,0E0,0E0,0E0],"parents":[2147483647,0,0,1,1,2,2,3,3,4,4,5,5,6,6],"right_children":[2,4,6,8,10,12,14,-1,-1,-1,-1,-1,-1,-1,-1],"split_conditions":[4E0,1.7873333E1,7E0,1.7449549E1,3.7931034E-1,2.9330128E1,9.1071427E-1,1.04744315E-1,-1.4042047E-2,-2.4796684E-1,-1.5303077E-1,2.6133037E-3,-1.8901186E-1,5.4161992E-2,-4.948812E-2],"split_indices":[0,1,0,1,8,1,9,0,0,0,0,0,0,0,0],"split_type":[0,0,0,0,0,0,0,0,0,0,0,0,0,0,0],"sum_hessian":[3E2,5E1,2.5E2,5E0,4.5E1,5.1E1,1.99E2,3E0,2E0,2.1E1,2.4E1,4E1,1.1E1,1.85E2,1.4E1],"tree_param":{"num_deleted":"0","num_feature":"13","num_nodes":"15","size_leaf_vector":"1"}},{"base_weights":[-1.5156959E0,-2.8833103E0,1.7436558E0,-3.4340177E0,8.529311E0,-2.7163884E-1,9.707965E0,-1.1536031E-1,-2.1715837E-2,1.16240114E-1,-9.661498E-2,1.7345713E-2,-1.450784E-1,-2.361534E-3,1.7686874E-1],"categories":[],"categories_nodes":[],"categories_segments":[],"categories_sizes":[],"default_left":[0,0,0,0,0,0,0,0,0,0,0,0,0,0,0],"id":65,"left_children":[1,3,5,7,9,11,13,-1,-1,-1,-1,-1,-1,-1,-1],"loss_changes":[1.3378308E3,1.3554282E3,1.4311254E3,2.0410566E3,6.7525653E2,2.0815432E3,1.4323549E3,0E0,0E0,0E0,0E0,0E0,0E0,0E0,0E0],"parents":[2147483647,0,0,1,1,2,2,3,3,4,4,5,5,6,6],"right_children":[2,4,6,8,10,12,14,-1,-1,-1,-1,-1,-1,-1,-1],"split_conditions":[7.0422536E-1,3.0769232E-1,5.618543E1,1.0973856E0,3.3766234E-1,9.1071427E-1,8.2758623E-1,-1.1536031E-1,-2.1715837E-2,1.16240114E-1,-9.661498E-2,1.7345713E-2,-1.450784E-1,-2.361534E-3,1.7686874E-1],"split_indices":[9,10,3,5,10,9,9,0,0,0,0,0,0,0,0],"split_type":[0,0,0,0,0,0,0,0,0,0,0,0,0,0,0],"sum_hessian":[2.98E2,2.1E2,8.8E1,2.01E2,9E0,7.1E1,1.7E1,2.6E1,1.75E2,8E0,1E0,6.3E1,8E0,8E0,9E0],"tree_param":{"num_deleted":"0","num_feature":"13","num_nodes":"15","size_leaf_vector":"1"}},{"base_weights":[-1.1807662E0,1.0473244E0,-3.758964E0,4.423115E-1,1.7107285E1,-1.3985087E1,-6.8490076E-1,1.4563055E-2,-5.132068E-2,1.9441381E-1,2.7184013E-2,-1.9107263E-1,4.4101212E-2,-4.324176E-2,2.4805529E-2],"categories":[],"categories_nodes":[],"categories_segments":[],"categories_sizes":[],"default_left":[0,0,0,0,0,0,0,0,0,0,0,0,0,0,0],"id":66,"left_children":[1,3,5,7,9,11,13,-1,-1,-1,-1,-1,-1,-1,-1],"loss_changes":[1.7732301E3,1.6053695E3,4.4857334E3,9.175083E2,1.4866064E2,3.1936416E3,1.2894417E3,0E0,0E0,0E0,0E0,0E0,0E0,0E0,0E0],"parents":[2147483647,0,0,1,1,2,2,3,3,4,4,5,5,6,6],"right_children":[2,4,6,8,10,12,14,-1,-1,-1,-1,-1,-1,-1,-1],"split_conditions":[3.409091E-1,3.3962265E-1,4.090909E-1,1.9E1,1.6E1,4.5639473E1,1.1E1,1.4563055E-2,-5.132068E-2,1.9441381E-1,2.7184013E-2,-1.9107263E-1,4.4101212E-2,-4.324176E-2,2.4805529E-2],"split_indices":[8,8,8,12,12,2,12,0,0,0,0,0,0,0,0],"split_type":[0,0,0,0,0,0,0,0,0,0,0,0,0,0,0],"sum_hessian":[3.07E2,1.65E2,1.42E2,1.6E2,5E0,3.2E1,1.1E2,1.36E2,2.4E1,4E0,1E0,2.5E1,7E0,5.1E1,5.9E1],"tree_param":{"num_deleted":"0","num_feature":"13","num_nodes":"15","size_leaf_vector":"1"}},{"base_weights":[5.1141477E-1,-1.0373577E1,5.7673945E0,-1.9459906E1,-4.958457E0,2.011182E0,8.023003E0,6.309848E-2,-2.0351005E-1,-1.4860882E-1,-2.6228428E-2,3.5163384E-2,-1.6887613E-1,5.1913142E-2,1.80519E-1],"categories":[],"categories_nodes":[],"categories_segments":[],"categories_sizes":[],"default_left":[0,0,0,0,0,0,0,0,0,0,0,0,0,0,0],"id":67,"left_children":[1,3,5,7,9,11,13,-1,-1,-1,-1,-1,-1,-1,-1],"loss_changes":[1.7566486E4,4.823865E3,1.7376802E3,9.780586E2,1.4412299E3,2.3065889E3,3.5697217E3,0E0,0E0,0E0,0E0,0E0,0E0,0E0,0E0],"parents":[2147483647,0,0,1,1,2,2,3,3,4,4,5,5,6,6],"right_children":[2,4,6,8,10,12,14,-1,-1,-1,-1,-1,-1,-1,-1],"split_conditions":[7E0,3E0,1.2E1,1E0,1.3004666E2,2.5E-1,5.3846157E-1,6.309848E-2,-2.0351005E-1,-1.4860882E-1,-2.6228428E-2,3.5163384E-2,-1.6887613E-1,5.1913142E-2,1.80519E-1],"split_indices":[0,0,0,0,6,10,8,0,0,0,0,0,0,0,0],"split_type":[0,0,0,0,0,0,0,0,0,0,0,0,0,0,0],"sum_hessian":[3.05E2,9.9E1,2.06E2,3.6E1,6.3E1,7.8E1,1.28E2,1E0,3.5E1,1.1E1,5.2E1,7.3E1,5E0,1.01E2,2.7E1],"tree_param":{"num_deleted":"0","num_feature":"13","num_nodes":"15","size_leaf_vector":"1"}},{"base_weights":[4.6216416E-1,-1.3676895E1,4.067759E0,-1.9851875E1,-7.648825E0,2.5706628E-1,7.433355E0,-1.6118865E-2,-2.1097164E-1,2.7418692E-2,-1.1083522E-1,4.759164E-2,-5.9041098E-2,4.046366E-2,1.7163795E-1],"categories":[],"categories_nodes":[],"categories_segments":[],"categories_sizes":[],"default_left":[0,0,0,0,0,0,0,0,0,0,0,0,0,0,0],"id":68,"left_children":[1,3,5,7,9,11,13,-1,-1,-1,-1,-1,-1,-1,-1],"loss_changes":[1.5553469E4,2.155995E3,3.1146252E3,6.47417E2,1.2081228E3,3.2179937E3,4.181989E3,0E0,0E0,0E0,0E0,0E0,0E0,0E0,0E0],"parents":[2147483647,0,0,1,1,2,2,3,3,4,4,5,5,6,6],"right_children":[2,4,6,8,10,12,14,-1,-1,-1,-1,-1,-1,-1,-1],"split_conditions":[5E0,3E0,1.2E1,1.7873333E1,2.2398039E1,3.548387E-1,5.4E-1,-1.6118865E-2,-2.1097164E-1,2.7418692E-2,-1.1083522E-1,4.759164E-2,-5.9041098E-2,4.046366E-2,1.7163795E-1],"split_indices":[0,0,0,1,1,8,8,0,0,0,0,0,0,0,0],"split_type":[0,0,0,0,0,0,0,0,0,0,0,0,0,0,0],"sum_hessian":[3.03E2,6.1E1,2.42E2,2.9E1,3.2E1,1.14E2,1.28E2,2E0,2.7E1,8E0,2.4E1,6.6E1,4.8E1,9.6E1,3.2E1],"tree_param":{"num_deleted":"0","num_feature":"13","num_nodes":"15","size_leaf_vector":"1"}},{"base_weights":[5.7634264E-1,-1.6240412E1,3.8821948E0,6.286359E-2,-1.6853458E1,-2.352364E0,6.065231E0,-1.189217E-1,-1.9030504E-1,-6.680459E-2,5.6533907E-2,7.295083E-2,-3.154838E-2],"categories":[],"categories_nodes":[],"categories_segments":[],"categories_sizes":[],"default_left":[0,0,0,0,0,0,0,0,0,0,0,0,0],"id":69,"left_children":[1,3,5,-1,7,9,11,-1,-1,-1,-1,-1,-1],"loss_changes":[1.6240816E4,7.6882324E2,3.3351726E3,0E0,2.8133105E2,2.2553462E3,2.0754312E3,0E0,0E0,0E0,0E0,0E0,0E0],"parents":[2147483647,0,0,1,1,2,2,4,4,5,5,6,6],"right_children":[2,4,6,-1,8,10,12,-1,-1,-1,-1,-1,-1],"split_conditions":[4E0,1E0,3.1578946E-1,6.286359E-2,3.8709676E-1,1.5E1,8.695652E-1,-1.189217E-1,-1.9030504E-1,-6.680459E-2,5.6533907E-2,7.295083E-2,-3.154838E-2],"split_indices":[0,0,9,0,9,0,9,0,0,0,0,0,0],"split_type":[0,0,0,0,0,0,0,0,0,0,0,0,0],"sum_hessian":[2.9E2,4.7E1,2.43E2,1E0,4.6E1,6.3E1,1.8E2,1.6E1,3E1,4.1E1,2.2E1,1.59E2,2.1E1],"tree_param":{"num_deleted":"0","num_feature":"13","num_nodes":"13","size_leaf_vector":"1"}},{"base_weights":[-2.5821994E-3,8.3157265E-1,-7.6767206E0,-1.8079378E-1,7.176941E0,-2.1715317E1,-4.681732E0,3.5885334E-2,-2.692423E-2,2.8340852E-2,1.9053529E-1,-4.712179E-2,-3.1480014E-1,-6.0372896E-2,7.723305E-2],"categories":[],"categories_nodes":[],"categories_segments":[],"categories_sizes":[],"default_left":[0,0,0,0,0,0,0,0,0,0,0,0,0,0,0],"id":70,"left_children":[1,3,5,7,9,11,13,-1,-1,-1,-1,-1,-1,-1,-1],"loss_changes":[1.9588168E3,1.7742769E3,1.1596978E3,2.2723115E3,1.9059767E3,6.81813E2,4.8383704E2,0E0,0E0,0E0,0E0,0E0,0E0,0E0,0E0],"parents":[2147483647,0,0,1,1,2,2,3,3,4,4,5,5,6,6],"right_children":[2,4,6,8,10,12,14,-1,-1,-1,-1,-1,-1,-1,-1],"split_conditions":[6.060606E-1,2.8787878E-1,1.3264285E2,2.8846154E-1,3.205425E1,6.315789E-1,2.035849E2,3.5885334E-2,-2.692423E-2,2.8340852E-2,1.9053529E-1,-4.712179E-2,-3.1480014E-1,-6.0372896E-2,7.723305E-2],"split_indices":[7,7,6,8,2,7,6,0,0,0,0,0,0,0,0],"split_type":[0,0,0,0,0,0,0,0,0,0,0,0,0,0,0],"sum_hessian":[3.04E2,2.75E2,2.9E1,2.38E2,3.7E1,4E0,2.5E1,9.5E1,1.43E2,2.8E1,9E0,2E0,2E0,2.3E1,2E0],"tree_param":{"num_deleted":"0","num_feature":"13","num_nodes":"15","size_leaf_vector":"1"}},{"base_weights":[-5.698886E-1,-2.1965728E0,3.0609825E0,3.6900023E-1,-9.561404E0,5.3326945E0,-6.574538E0,3.7463535E-2,-4.648508E-2,9.96354E-2,-1.5519035E-1,-1.2987823E-2,1.0574063E-1,1.4419588E-1,-1.5758401E-1],"categories":[],"categories_nodes":[],"categories_segments":[],"categories_sizes":[],"default_left":[0,0,0,0,0,0,0,0,0,0,0,0,0,0,0],"id":71,"left_children":[1,3,5,7,9,11,13,-1,-1,-1,-1,-1,-1,-1,-1],"loss_changes":[1.7549827E3,3.8770056E3,2.0488594E3,2.610137E3,6.319714E3,2.6205852E3,3.6977593E3,0E0,0E0,0E0,0E0,0E0,0E0,0E0,0E0],"parents":[2147483647,0,0,1,1,2,2,3,3,4,4,5,5,6,6],"right_children":[2,4,6,8,10,12,14,-1,-1,-1,-1,-1,-1,-1,-1],"split_conditions":[4.528302E-1,3.409091E-1,6.9736844E-1,1E1,9.397815E2,1.1E1,3.205425E1,3.7463535E-2,-4.648508E-2,9.96354E-2,-1.5519035E-1,-1.2987823E-2,1.0574063E-1,1.4419588E-1,-1.5758401E-1],"split_indices":[8,8,8,12,4,12,2,0,0,0,0,0,0,0,0],"split_type":[0,0,0,0,0,0,0,0,0,0,0,0,0,0,0],"sum_hessian":[2.95E2,2.04E2,9.1E1,1.52E2,5.2E1,7.4E1,1.7E1,9.1E1,6.1E1,1.2E1,4E1,3.3E1,4.1E1,5E0,1.2E1],"tree_param":{"num_deleted":"0","num_feature":"13","num_nodes":"15","size_leaf_vector":"1"}},{"base_weights":[-3.379607E-1,2.4407375E0,-3.4834933E0,2.9775586E0,-1.9508083E1,-2.632256E0,-2.6451188E-1,2.4783926E-2,2.1700643E-1,-2.2410478E-1,-5.4004505E-2,-3.3142246E-2,1.3037084E-1],"categories":[],"categories_nodes":[],"categories_segments":[],"categories_sizes":[],"default_left":[0,0,0,0,0,0,0,0,0,0,0,0,0],"id":72,"left_children":[1,3,5,7,9,11,-1,-1,-1,-1,-1,-1,-1],"loss_changes":[2.6656099E3,1.966866E3,2.7261611E3,1.4322198E3,4.2756958E1,1.5285614E3,0E0,0E0,0E0,0E0,0E0,0E0,0E0],"parents":[2147483647,0,0,1,1,2,2,3,3,4,4,5,5],"right_children":[2,4,6,8,10,12,-1,-1,-1,-1,-1,-1,-1],"split_conditions":[3.409091E-1,7.5714284E-1,6.4E-1,9.8039216E-1,9.0384614E-1,8.6E-1,-2.6451188E-1,2.4783926E-2,2.1700643E-1,-2.2410478E-1,-5.4004505E-2,-3.3142246E-2,1.3037084E-1],"split_indices":[8,7,9,9,7,8,0,0,0,0,0,0,0],"split_type":[0,0,0,0,0,0,0,0,0,0,0,0,0],"sum_hessian":[3.03E2,1.61E2,1.42E2,1.58E2,3E0,1.38E2,4E0,1.55E2,3E0,2E0,1E0,1.33E2,5E0],"tree_param":{"num_deleted":"0","num_feature":"13","num_nodes":"13","size_leaf_vector":"1"}},{"base_weights":[-4.743016E-1,-1.4712345E1,2.4321566E0,3.1396627E0,-1.7162384E1,-6.4578325E-1,5.418238E0,-1.6946997E-2,1.0150379E-1,-2.1318242E-1,-1.1848611E-1,4.3729246E-2,-7.021488E-2,2.629088E-2,1.6151895E-1],"categories":[],"categories_nodes":[],"categories_segments":[],"categories_sizes":[],"default_left":[0,0,0,0,0,0,0,0,0,0,0,0,0,0,0],"id":73,"left_children":[1,3,5,7,9,11,13,-1,-1,-1,-1,-1,-1,-1,-1],"loss_changes":[1.2450468E4,2.2845264E3,2.301244E3,2.5444827E2,7.411553E2,3.9984321E3,3.7596333E3,0E0,0E0,0E0,0E0,0E0,0E0,0E0,0E0],"parents":[2147483647,0,0,1,1,2,2,3,3,4,4,5,5,6,6],"right_children":[2,4,6,8,10,12,14,-1,-1,-1,-1,-1,-1,-1,-1],"split_conditions":[4E0,1.7873333E1,1.2E1,3E0,3.9285713E-1,3.548387E-1,5.714286E-1,-1.6946997E-2,1.0150379E-1,-2.1318242E-1,-1.1848611E-1,4.3729246E-2,-7.021488E-2,2.629088E-2,1.6151895E-1],"split_indices":[0,1,0,0,8,8,8,0,0,0,0,0,0,0,0],"split_type":[0,0,0,0,0,0,0,0,0,0,0,0,0,0,0],"sum_hessian":[2.99E2,5E1,2.49E2,6E0,4.4E1,1.23E2,1.26E2,4E0,2E0,2.3E1,2.1E1,6.9E1,5.4E1,1.01E2,2.5E1],"tree_param":{"num_deleted":"0","num_feature":"13","num_nodes":"15","size_leaf_vector":"1"}},{"base_weights":[-1.8053464E0,1.1884931E0,-3.9285116E0,-1.0610248E0,1.1666305E1,-3.1411357E0,-2.2264317E1,1.8383335E-2,-1.0681343E-1,1.7039396E-1,9.083667E-2,7.423445E-2,-4.3020353E-2,-3.2524627E-1,-6.437927E-2],"categories":[],"categories_nodes":[],"categories_segments":[],"categories_sizes":[],"default_left":[0,0,0,0,0,0,0,0,0,0,0,0,0,0,0],"id":74,"left_children":[1,3,5,7,9,11,13,-1,-1,-1,-1,-1,-1,-1,-1],"loss_changes":[1.8925245E3,2.9350615E3,2.4421323E3,2.8925894E3,1.505083E2,2.092358E3,9.272947E2,0E0,0E0,0E0,0E0,0E0,0E0,0E0,0E0],"parents":[2147483647,0,0,1,1,2,2,3,3,4,4,5,5,6,6],"right_children":[2,4,6,8,10,12,14,-1,-1,-1,-1,-1,-1,-1,-1],"split_conditions":[2.8846154E-1,2.4528302E-1,6.363636E-1,1.8E-1,4.2857143E-1,1.805E1,1.805E1,1.8383335E-2,-1.0681343E-1,1.7039396E-1,9.083667E-2,7.423445E-2,-4.3020353E-2,-3.2524627E-1,-6.437927E-2],"split_indices":[8,8,7,8,9,1,1,0,0,0,0,0,0,0,0],"split_type":[0,0,0,0,0,0,0,0,0,0,0,0,0,0,0],"sum_hessian":[2.96E2,1.23E2,1.73E2,1.02E2,2.1E1,1.67E2,6E0,7.9E1,2.3E1,5E0,1.6E1,1.6E1,1.51E2,3E0,3E0],"tree_param":{"num_deleted":"0","num_feature":"13","num_nodes":"15","size_leaf_vector":"1"}},{"base_weights":[-5.4717815E-1,-1.5267737E1,2.3769298E0,3.0966096E0,-1.7678007E1,-1.4656236E0,6.317917E0,8.4422044E-2,-6.844919E-2,-2.3699968E-1,-1.3805383E-1,-1.11651726E-1,1.1524555E-2,8.1243806E-2,-4.2045023E-2],"categories":[],"categories_nodes":[],"categories_segments":[],"categories_sizes":[],"default_left":[0,0,0,0,0,0,0,0,0,0,0,0,0,0,0],"id":75,"left_children":[1,3,5,7,9,11,13,-1,-1,-1,-1,-1,-1,-1,-1],"loss_changes":[1.3767486E4,2.4006836E3,4.052562E3,4.2978998E2,7.6888965E2,3.466477E3,2.5432646E3,0E0,0E0,0E0,0E0,0E0,0E0,0E0,0E0],"parents":[2147483647,0,0,1,1,2,2,3,3,4,4,5,5,6,6],"right_children":[2,4,6,8,10,12,14,-1,-1,-1,-1,-1,-1,-1,-1],"split_conditions":[4E0,1.7873333E1,1.2E1,3.7878788E-1,2E0,2.6923078E-1,8.695652E-1,8.4422044E-2,-6.844919E-2,-2.3699968E-1,-1.3805383E-1,-1.11651726E-1,1.1524555E-2,8.1243806E-2,-4.2045023E-2],"split_indices":[0,1,0,7,0,9,9,0,0,0,0,0,0,0,0],"split_type":[0,0,0,0,0,0,0,0,0,0,0,0,0,0,0],"sum_hessian":[3.18E2,5.2E1,2.66E2,6E0,4.6E1,1.35E2,1.31E2,4E0,2E0,1.6E1,3E1,2.8E1,1.07E2,1.12E2,1.9E1],"tree_param":{"num_deleted":"0","num_feature":"13","num_nodes":"15","size_leaf_vector":"1"}},{"base_weights":[2.5639668E-1,-1.6637436E1,3.540291E0,-2.000909E0,-1.8255201E1,-1.7861854E0,4.934106E0,6.264068E-2,-4.906718E-2,-2.2256288E-1,-1.3242465E-1,1.4194656E-2,-1.2857114E-1,3.2564767E-2,1.0983671E-1],"categories":[],"categories_nodes":[],"categories_segments":[],"categories_sizes":[],"default_left":[0,0,0,0,0,0,0,0,0,0,0,0,0,0,0],"id":76,"left_children":[1,3,5,7,9,11,13,-1,-1,-1,-1,-1,-1,-1,-1],"loss_changes":[1.6702168E4,1.1237188E3,1.8796919E3,1.7483469E2,5.8775195E2,1.8991958E3,1.9940171E3,0E0,0E0,0E0,0E0,0E0,0E0,0E0,0E0],"parents":[2147483647,0,0,1,1,2,2,3,3,4,4,5,5,6,6],"right_children":[2,4,6,8,10,12,14,-1,-1,-1,-1,-1,-1,-1,-1],"split_conditions":[4E0,1.7873333E1,7E0,1E0,3.9285713E-1,2.9330128E1,5.614035E-1,6.264068E-2,-4.906718E-2,-2.2256288E-1,-1.3242465E-1,1.4194656E-2,-1.2857114E-1,3.2564767E-2,1.0983671E-1],"split_indices":[0,1,0,0,8,1,8,0,0,0,0,0,0,0,0],"split_type":[0,0,0,0,0,0,0,0,0,0,0,0,0,0,0],"sum_hessian":[2.99E2,4.8E1,2.51E2,5E0,4.3E1,5.2E1,1.99E2,1E0,4E0,2.2E1,2.1E1,4.1E1,1.1E1,1.57E2,4.2E1],"tree_param":{"num_deleted":"0","num_feature":"13","num_nodes":"15","size_leaf_vector":"1"}},{"base_weights":[7.649139E-1,-1.6204546E1,3.7527695E0,-1.9740772E1,-1.1449539E1,3.2202777E-1,6.808271E0,-3.9055433E-2,-2.1722597E-1,-1.475016E-1,2.7226074E-2,-6.956282E-2,4.7035474E-2,3.8352232E-2,1.8351127E-1],"categories":[],"categories_nodes":[],"categories_segments":[],"categories_sizes":[],"default_left":[0,0,0,0,0,0,0,0,0,0,0,0,0,0,0],"id":77,"left_children":[1,3,5,7,9,11,13,-1,-1,-1,-1,-1,-1,-1,-1],"loss_changes":[1.5575715E4,5.4745703E2,2.7337756E3,6.9972656E2,1.0692507E3,3.9870867E3,4.6654287E3,0E0,0E0,0E0,0E0,0E0,0E0,0E0,0E0],"parents":[2147483647,0,0,1,1,2,2,3,3,4,4,5,5,6,6],"right_children":[2,4,6,8,10,12,14,-1,-1,-1,-1,-1,-1,-1,-1],"split_conditions":[4E0,3.9285713E-1,1.2E1,1.2456209E2,2.1428572E-1,3.9215687E-1,5.614035E-1,-3.9055433E-2,-2.1722597E-1,-1.475016E-1,2.7226074E-2,-6.956282E-2,4.7035474E-2,3.8352232E-2,1.8351127E-1],"split_indices":[0,8,0,6,7,9,8,0,0,0,0,0,0,0,0],"split_type":[0,0,0,0,0,0,0,0,0,0,0,0,0,0,0],"sum_hessian":[3.05E2,4.5E1,2.6E2,2.4E1,2.1E1,1.23E2,1.37E2,3E0,2.1E1,1.7E1,4E0,4.6E1,7.7E1,1.1E2,2.7E1],"tree_param":{"num_deleted":"0","num_feature":"13","num_nodes":"15","size_leaf_vector":"1"}},{"base_weights":[1.0223001E0,7.4044967E-1,2.148273E1,1.3336369E0,-8.429178E0,5.957949E-2,2.4671674E-1,6.69806E-3,1.7325383E-1,-1.3912302E-1,4.8557878E-2],"categories":[],"categories_nodes":[],"categories_segments":[],"categories_sizes":[],"default_left":[0,0,0,0,0,0,0,0,0,0,0],"id":78,"left_children":[1,3,5,7,9,-1,-1,-1,-1,-1,-1],"loss_changes":[1.696827E3,1.6103975E3,5.1038086E1,2.9289766E3,1.3787314E3,0E0,0E0,0E0,0E0,0E0,0E0],"parents":[2147483647,0,0,1,1,2,2,3,3,4,4],"right_children":[2,4,6,8,10,-1,-1,-1,-1,-1,-1],"split_conditions":[9.8039216E-1,8.636364E-1,2.2674026E1,8.4E-1,5.4157658E1,5.957949E-2,2.4671674E-1,6.69806E-3,1.7325383E-1,-1.3912302E-1,4.8557878E-2],"split_indices":[9,9,1,9,3,0,0,0,0,0,0],"split_type":[0,0,0,0,0,0,0,0,0,0,0],"sum_hessian":[2.96E2,2.93E2,3E0,2.76E2,1.7E1,1E0,2E0,2.66E2,1E1,1.2E1,5E0],"tree_param":{"num_deleted":"0","num_feature":"13","num_nodes":"11","size_leaf_vector":"1"}},{"base_weights":[-4.8973835E-1,1.6481241E0,-2.8932776E0,-1.3254926E0,5.9484134E0,-2.2028486E1,-9.722777E-1,-3.2301121E-3,-1.6308877E-1,1.0597114E-1,1.5282173E-2,6.3380115E-2,-2.4920528E-1,6.332008E-2,-2.9294671E-2],"categories":[],"categories_nodes":[],"categories_segments":[],"categories_sizes":[],"default_left":[0,0,0,0,0,0,0,0,0,0,0,0,0,0,0],"id":79,"left_children":[1,3,5,7,9,11,13,-1,-1,-1,-1,-1,-1,-1,-1],"loss_changes":[1.5617147E3,2.0666577E3,5.235081E3,1.4367063E3,1.3399849E3,1.2244292E3,1.8913086E3,0E0,0E0,0E0,0E0,0E0,0E0,0E0,0E0],"parents":[2147483647,0,0,1,1,2,2,3,3,4,4,5,5,6,6],"right_children":[2,4,6,8,10,12,14,-1,-1,-1,-1,-1,-1,-1,-1],"split_conditions":[3.409091E-1,2.2E-1,3.6619717E-1,2.0689656E-1,1.4E1,1.7449549E1,2.147351E1,-3.2301121E-3,-1.6308877E-1,1.0597114E-1,1.5282173E-2,6.3380115E-2,-2.4920528E-1,6.332008E-2,-2.9294671E-2],"split_indices":[8,8,8,8,12,1,1,0,0,0,0,0,0,0,0],"split_type":[0,0,0,0,0,0,0,0,0,0,0,0,0,0,0],"sum_hessian":[3.02E2,1.6E2,1.42E2,9.5E1,6.5E1,1.2E1,1.3E2,9E1,5E0,3.1E1,3.4E1,1E0,1.1E1,2.7E1,1.03E2],"tree_param":{"num_deleted":"0","num_feature":"13","num_nodes":"15","size_leaf_vector":"1"}},{"base_weights":[-7.385306E-1,6.083457E-2,-1.3955145E1,-6.931371E-1,1.708296E1,-2.4961191E1,1.5468066E0,1.7462313E-2,-4.27936E-2,2.1166621E-1,7.132508E-2,-2.8398514E-1,-7.474599E-2,-1.2521958E-1,5.3454816E-2],"categories":[],"categories_nodes":[],"categories_segments":[],"categories_sizes":[],"default_left":[0,0,0,0,0,0,0,0,0,0,0,0,0,0,0],"id":80,"left_children":[1,3,5,7,9,11,13,-1,-1,-1,-1,-1,-1,-1,-1],"loss_changes":[3.1491895E3,3.6310852E3,2.9390684E3,2.3782134E3,3.3664038E2,3.8880322E2,4.9447726E2,0E0,0E0,0E0,0E0,0E0,0E0,0E0,0E0],"parents":[2147483647,0,0,1,1,2,2,3,3,4,4,5,5,6,6],"right_children":[2,4,6,8,10,12,14,-1,-1,-1,-1,-1,-1,-1,-1],"split_conditions":[6.9736844E-1,6.6071427E-1,1.49E0,3.409091E-1,3.2142857E-1,7.887324E-1,7.017544E-1,1.7462313E-2,-4.27936E-2,2.1166621E-1,7.132508E-2,-2.8398514E-1,-7.474599E-2,-1.2521958E-1,5.3454816E-2],"split_indices":[8,8,5,8,9,8,8,0,0,0,0,0,0,0,0],"split_type":[0,0,0,0,0,0,0,0,0,0,0,0,0,0,0],"sum_hessian":[2.97E2,2.81E2,1.6E1,2.7E2,1.1E1,9E0,7E0,1.61E2,1.09E2,7E0,4E0,7E0,2E0,1E0,6E0],"tree_param":{"num_deleted":"0","num_feature":"13","num_nodes":"15","size_leaf_vector":"1"}},{"base_weights":[6.37795E-1,-4.5347066E0,2.3667479E0,-1.728889E1,-1.3758767E0,5.9990363E0,3.1048486E-1,-2.3777106E-1,-6.477056E-2,-2.4638383E-2,2.0841983E-1,2.3892388E-2,1.4133807E-1,1.4886026E-2,-1.18570745E-1],"categories":[],"categories_nodes":[],"categories_segments":[],"categories_sizes":[],"default_left":[0,0,0,0,0,0,0,0,0,0,0,0,0,0,0],"id":81,"left_children":[1,3,5,7,9,11,13,-1,-1,-1,-1,-1,-1,-1,-1],"loss_changes":[2.7115222E3,3.038123E3,1.6935869E3,8.982373E2,1.5500266E3,2.3741506E3,2.1105342E3,0E0,0E0,0E0,0E0,0E0,0E0,0E0,0E0],"parents":[2147483647,0,0,1,1,2,2,3,3,4,4,5,5,6,6],"right_children":[2,4,6,8,10,12,14,-1,-1,-1,-1,-1,-1,-1,-1],"split_conditions":[3.1578946E-1,1.3092896E0,5.535714E-1,2.4561404E-1,2.9330128E1,2.9330128E1,7.0775116E1,-2.3777106E-1,-6.477056E-2,-2.4638383E-2,2.0841983E-1,2.3892388E-2,1.4133807E-1,1.4886026E-2,-1.18570745E-1],"split_indices":[9,5,9,9,1,1,3,0,0,0,0,0,0,0,0],"split_type":[0,0,0,0,0,0,0,0,0,0,0,0,0,0,0],"sum_hessian":[3.01E2,7.5E1,2.26E2,1.4E1,6.1E1,8.1E1,1.45E2,8E0,6E0,5.9E1,2E0,5.7E1,2.4E1,1.33E2,1.2E1],"tree_param":{"num_deleted":"0","num_feature":"13","num_nodes":"15","size_leaf_vector":"1"}},{"base_weights":[-4.8326504E-1,-1.1515174E1,3.3263464E0,-1.9272085E1,-6.2656026E0,-8.151611E-1,6.2817774E0,4.071078E-2,-2.102234E-1,-2.3622522E-2,-2.548707E-1,2.7214376E-2,-6.686849E-2,9.130083E-2,2.1281475E-2],"categories":[],"categories_nodes":[],"categories_segments":[],"categories_sizes":[],"default_left":[0,0,0,0,0,0,0,0,0,0,0,0,0,0,0],"id":82,"left_children":[1,3,5,7,9,11,13,-1,-1,-1,-1,-1,-1,-1,-1],"loss_changes":[1.2772572E4,3.0554453E3,2.7713472E3,1.3521348E3,3.5411436E3,1.9909493E3,1.5422363E3,0E0,0E0,0E0,0E0,0E0,0E0,0E0,0E0],"parents":[2147483647,0,0,1,1,2,2,3,3,4,4,5,5,6,6],"right_children":[2,4,6,8,10,12,14,-1,-1,-1,-1,-1,-1,-1,-1],"split_conditions":[6E0,3E0,1.2E1,1.7873333E1,2.9330128E1,1.7948718E0,2E-2,4.071078E-2,-2.102234E-1,-2.3622522E-2,-2.548707E-1,2.7214376E-2,-6.686849E-2,9.130083E-2,2.1281475E-2],"split_indices":[0,0,0,1,1,5,7,0,0,0,0,0,0,0,0],"split_type":[0,0,0,0,0,0,0,0,0,0,0,0,0,0,0],"sum_hessian":[3.02E2,7.7E1,2.25E2,3E1,4.7E1,9.4E1,1.31E2,2E0,2.8E1,4E1,7E0,5.9E1,3.5E1,7.7E1,5.4E1],"tree_param":{"num_deleted":"0","num_feature":"13","num_nodes":"15","size_leaf_vector":"1"}},{"base_weights":[-3.9748442E-1,-1.03106165E1,4.3534465E0,-1.776283E1,-6.2137E0,4.828335E0,-1.6557535E1,-1.5614929E-2,-1.9739202E-1,-2.235652E-2,-2.1397908E-1,1.7549578E-2,7.056003E-2,-2.2297406E-1,-5.2984837E-2],"categories":[],"categories_nodes":[],"categories_segments":[],"categories_sizes":[],"default_left":[0,0,0,0,0,0,0,0,0,0,0,0,0,0,0],"id":83,"left_children":[1,3,5,7,9,11,13,-1,-1,-1,-1,-1,-1,-1,-1],"loss_changes":[1.4974511E4,3.03433E3,2.2149773E3,1.1218926E3,4.0596006E3,1.4322212E3,2.0498499E2,0E0,0E0,0E0,0E0,0E0,0E0,0E0,0E0],"parents":[2147483647,0,0,1,1,2,2,3,3,4,4,5,5,6,6],"right_children":[2,4,6,8,10,12,14,-1,-1,-1,-1,-1,-1,-1,-1],"split_conditions":[7E0,3E0,7.5714284E-1,1.7873333E1,2.9330128E1,1.3E1,9.0384614E-1,-1.5614929E-2,-1.9739202E-1,-2.235652E-2,-2.1397908E-1,1.7549578E-2,7.056003E-2,-2.2297406E-1,-5.2984837E-2],"split_indices":[0,0,7,1,1,0,7,0,0,0,0,0,0,0,0],"split_type":[0,0,0,0,0,0,0,0,0,0,0,0,0,0,0],"sum_hessian":[3.16E2,1.02E2,2.14E2,3.5E1,6.7E1,2.1E2,4E0,4E0,3.1E1,5.4E1,1.3E1,8.9E1,1.21E2,2E0,2E0],"tree_param":{"num_deleted":"0","num_feature":"13","num_nodes":"15","size_leaf_vector":"1"}},{"base_weights":[7.8817517E-1,5.535414E-1,2.4379876E-1,9.577921E-1,-1.9751249E-1,-3.733068E-3,5.0280847E-2],"categories":[],"categories_nodes":[],"categories_segments":[],"categories_sizes":[],"default_left":[0,0,0,0,0,0,0],"id":84,"left_children":[1,3,-1,5,-1,-1,-1],"loss_changes":[1.6858751E3,2.5224263E3,0E0,1.6272657E3,0E0,0E0,0E0],"parents":[2147483647,0,0,1,1,3,3],"right_children":[2,4,-1,6,-1,-1,-1],"split_conditions":[9.8039216E-1,9.4E-1,2.4379876E-1,7.368421E-1,-1.9751249E-1,-3.733068E-3,5.0280847E-2],"split_indices":[9,9,0,9,0,0,0],"split_type":[0,0,0,0,0,0,0],"sum_hessian":[3.06E2,3.04E2,2E0,2.99E2,5E0,2.26E2,7.3E1],"tree_param":{"num_deleted":"0","num_feature":"13","num_nodes":"7","size_leaf_vector":"1"}},{"base_weights":[2.8326666E-1,-1.4687293E1,2.9876518E0,8.559767E0,-1.7164074E1,-2.89928E-1,5.9421887E0,1.5517762E-1,-1.2514855E-2,-2.5629327E-1,-1.4667423E-1,1.0115402E-2,-9.380876E-2,3.8174592E-2,1.4376003E-1],"categories":[],"categories_nodes":[],"categories_segments":[],"categories_sizes":[],"default_left":[0,0,0,0,0,0,0,0,0,0,0,0,0,0,0],"id":85,"left_children":[1,3,5,7,9,11,13,-1,-1,-1,-1,-1,-1,-1,-1],"loss_changes":[1.1906325E4,2.7379238E3,2.4129717E3,3.6075354E2,4.9060938E2,1.4174473E3,2.292585E3,0E0,0E0,0E0,0E0,0E0,0E0,0E0,0E0],"parents":[2147483647,0,0,1,1,2,2,3,3,4,4,5,5,6,6],"right_children":[2,4,6,8,10,12,14,-1,-1,-1,-1,-1,-1,-1,-1],"split_conditions":[4E0,1.7873333E1,1.2E1,1.7449549E1,2.2E-1,5E-1,5.714286E-1,1.5517762E-1,-1.2514855E-2,-2.5629327E-1,-1.4667423E-1,1.0115402E-2,-9.380876E-2,3.8174592E-2,1.4376003E-1],"split_indices":[0,1,0,1,8,7,8,0,0,0,0,0,0,0,0],"split_type":[0,0,0,0,0,0,0,0,0,0,0,0,0,0,0],"sum_hessian":[2.92E2,4.4E1,2.48E2,4E0,4E1,1.18E2,1.3E2,2E0,2E0,7E0,3.3E1,1.04E2,1.4E1,1.05E2,2.5E1],"tree_param":{"num_deleted":"0","num_feature":"13","num_nodes":"15","size_leaf_vector":"1"}},{"base_weights":[-3.946179E-1,1.7677987E-1,-7.98666E0,-4.6167326E-1,2.037482E1,-1.1202992E1,1.6117774E-1,2.0907667E-2,-2.3576245E-2,2.3677045E-1,1.0327776E-1,5.369915E-2,-1.5681839E-1],"categories":[],"categories_nodes":[],"categories_segments":[],"categories_sizes":[],"default_left":[0,0,0,0,0,0,0,0,0,0,0,0,0],"id":86,"left_children":[1,3,5,7,9,11,-1,-1,-1,-1,-1,-1,-1],"loss_changes":[1.3635677E3,3.7877888E3,1.8861805E3,1.3841302E3,5.4067383E1,1.5687603E3,0E0,0E0,0E0,0E0,0E0,0E0,0E0],"parents":[2147483647,0,0,1,1,2,2,3,3,4,4,5,5],"right_children":[2,4,6,8,10,12,-1,-1,-1,-1,-1,-1,-1],"split_conditions":[8.695652E-1,8.428571E-1,9.8039216E-1,3.2E-1,1.3554193E2,3E0,1.6117774E-1,2.0907667E-2,-2.3576245E-2,2.3677045E-1,1.0327776E-1,5.369915E-2,-1.5681839E-1],"split_indices":[9,9,9,8,6,12,0,0,0,0,0,0,0],"split_type":[0,0,0,0,0,0,0,0,0,0,0,0,0],"sum_hessian":[3.13E2,2.92E2,2.1E1,2.84E2,8E0,1.9E1,2E0,1.21E2,1.63E2,5E0,3E0,4E0,1.5E1],"tree_param":{"num_deleted":"0","num_feature":"13","num_nodes":"13","size_leaf_vector":"1"}},{"base_weights":[-4.4810712E-1,-1.6911398E1,3.1081643E0,-1.9161471E0,-1.8316399E1,-2.6111012E0,4.591266E0,6.2635556E-2,-4.8047986E-2,-2.4030893E-1,-1.485419E-1,8.1945695E-3,-1.4972222E-1,7.7588014E-2,-4.477982E-3],"categories":[],"categories_nodes":[],"categories_segments":[],"categories_sizes":[],"default_left":[0,0,0,0,0,0,0,0,0,0,0,0,0,0,0],"id":87,"left_children":[1,3,5,7,9,11,13,-1,-1,-1,-1,-1,-1,-1,-1],"loss_changes":[1.87879E4,1.1657979E3,2.2513037E3,1.7186499E2,6.718496E2,2.344574E3,3.355371E3,0E0,0E0,0E0,0E0,0E0,0E0,0E0,0E0],"parents":[2147483647,0,0,1,1,2,2,3,3,4,4,5,5,6,6],"right_children":[2,4,6,8,10,12,14,-1,-1,-1,-1,-1,-1,-1,-1],"split_conditions":[4E0,1.7873333E1,7E0,1E0,2E0,2.9330128E1,5.357143E-2,6.2635556E-2,-4.8047986E-2,-2.4030893E-1,-1.485419E-1,8.1945695E-3,-1.4972222E-1,7.7588014E-2,-4.477982E-3],"split_indices":[0,1,0,0,0,1,7,0,0,0,0,0,0,0,0],"split_type":[0,0,0,0,0,0,0,0,0,0,0,0,0,0,0],"sum_hessian":[3.19E2,5.6E1,2.63E2,5E0,5.1E1,5.4E1,2.09E2,1E0,4E0,1.7E1,3.4E1,4.3E1,1.1E1,1.28E2,8.1E1],"tree_param":{"num_deleted":"0","num_feature":"13","num_nodes":"15","size_leaf_vector":"1"}},{"base_weights":[-9.715677E-1,-1.1723265E1,4.354886E0,-1.795803E1,-7.9744577E0,1.3405616E0,7.1787543E0,2.0626834E-2,-1.9840601E-1,-3.34599E-2,-1.3640542E-1,-2.5131702E-2,8.890622E-2,1.2392484E-1,3.6151797E-2],"categories":[],"categories_nodes":[],"categories_segments":[],"categories_sizes":[],"default_left":[0,0,0,0,0,0,0,0,0,0,0,0,0,0,0],"id":88,"left_children":[1,3,5,7,9,11,13,-1,-1,-1,-1,-1,-1,-1,-1],"loss_changes":[1.6945236E4,2.1473428E3,1.6757639E3,1.3977783E3,1.6065513E3,2.844647E3,1.8503091E3,0E0,0E0,0E0,0E0,0E0,0E0,0E0,0E0],"parents":[2147483647,0,0,1,1,2,2,3,3,4,4,5,5,6,6],"right_children":[2,4,6,8,10,12,14,-1,-1,-1,-1,-1,-1,-1,-1],"split_conditions":[7E0,3E0,1.4E1,1.7873333E1,1.1E1,2.035849E2,4.3421054E-1,2.0626834E-2,-1.9840601E-1,-3.34599E-2,-1.3640542E-1,-2.5131702E-2,8.890622E-2,1.2392484E-1,3.6151797E-2],"split_indices":[0,0,0,1,12,6,9,0,0,0,0,0,0,0,0],"split_type":[0,0,0,0,0,0,0,0,0,0,0,0,0,0,0],"sum_hessian":[2.94E2,9.7E1,1.97E2,